{"learner":{"attributes":{"best_iteration":"2182","best_score":"0.5643713663020058"},"feature_names":[],"feature_types":[],"gradient_booster":{"model":{"gbtree_model_param":{"num_parallel_tree":"1","num_trees":"2283"},"iteration_indptr":[0,1,2,3,4,5,6,7,8,9,10,11,12,13,14,15,16,17,18,19,20,21,22,23,24,25,26,27,28,29,30,31,32,33,34,35,36,37,38,39,40,41,42,43,44,45,46,47,48,49,50,51,52,53,54,55,56,57,58,59,60,61,62,63,64,65,66,67,68,69,70,71,72,73,74,75,76,77,78,79,80,81,82,83,84,85,86,87,88,89,90,91,92,93,94,95,96,97,98,99,100,101,102,103,104,105,106,107,108,109,110,111,112,113,114,115,116,117,118,119,120,121,122,123,124,125,126,127,128,129,130,131,132,133,134,135,136,137,138,139,140,141,142,143,144,145,146,147,148,149,150,151,152,153,154,155,156,157,158,159,160,161,162,163,164,165,166,167,168,169,170,171,172,173,174,175,176,177,178,179,180,181,182,183,184,185,186,187,188,189,190,191,192,193,194,195,196,197,198,199,200,201,202,203,204,205,206,207,208,209,210,211,212,213,214,215,216,217,218,219,220,221,222,223,224,225,226,227,228,229,230,231,232,233,234,235,236,237,238,239,240,241,242,243,244,245,246,247,248,249,250,251,252,253,254,255,256,257,258,259,260,261,262,263,264,265,266,267,268,269,270,271,272,273,274,275,276,277,278,279,280,281,282,283,284,285,286,287,288,289,290,291,292,293,294,295,296,297,298,299,300,301,302,303,304,305,306,307,308,309,310,311,312,313,314,315,316,317,318,319,320,321,322,323,324,325,326,327,328,329,330,331,332,333,334,335,336,337,338,339,340,341,342,343,344,345,346,347,348,349,350,351,352,353,354,355,356,357,358,359,360,361,362,363,364,365,366,367,368,369,370,371,372,373,374,375,376,377,378,379,380,381,382,383,384,385,386,387,388,389,390,391,392,393,394,395,396,397,398,399,400,401,402,403,404,405,406,407,408,409,410,411,412,413,414,415,416,417,418,419,420,421,422,423,424,425,426,427,428,429,430,431,432,433,434,435,436,437,438,439,440,441,442,443,444,445,446,447,448,449,450,451,452,453,454,455,456,457,458,459,460,461,462,463,464,465,466,467,468,469,470,471,472,473,474,475,476,477,478,479,480,481,482,483,484,485,486,487,488,489,490,491,492,493,494,495,496,497,498,499,500,501,502,503,504,505,506,507,508,509,510,511,512,513,514,515,516,517,518,519,520,521,522,523,524,525,526,527,528,529,530,531,532,533,534,535,536,537,538,539,540,541,542,543,544,545,546,547,548,549,550,551,552,553,554,555,556,557,558,559,560,561,562,563,564,565,566,567,568,569,570,571,572,573,574,575,576,577,578,579,580,581,582,583,584,585,586,587,588,589,590,591,592,593,594,595,596,597,598,599,600,601,602,603,604,605,606,607,608,609,610,611,612,613,614,615,616,617,618,619,620,621,622,623,624,625,626,627,628,629,630,631,632,633,634,635,636,637,638,639,640,641,642,643,644,645,646,647,648,649,650,651,652,653,654,655,656,657,658,659,660,661,662,663,664,665,666,667,668,669,670,671,672,673,674,675,676,677,678,679,680,681,682,683,684,685,686,687,688,689,690,691,692,693,694,695,696,697,698,699,700,701,702,703,704,705,706,707,708,709,710,711,712,713,714,715,716,717,718,719,720,721,722,723,724,725,726,727,728,729,730,731,732,733,734,735,736,737,738,739,740,741,742,743,744,745,746,747,748,749,750,751,752,753,754,755,756,757,758,759,760,761,762,763,764,765,766,767,768,769,770,771,772,773,774,775,776,777,778,779,780,781,782,783,784,785,786,787,788,789,790,791,792,793,794,795,796,797,798,799,800,801,802,803,804,805,806,807,808,809,810,811,812,813,814,815,816,817,818,819,820,821,822,823,824,825,826,827,828,829,830,831,832,833,834,835,836,837,838,839,840,841,842,843,844,845,846,847,848,849,850,851,852,853,854,855,856,857,858,859,860,861,862,863,864,865,866,867,868,869,870,871,872,873,874,875,876,877,878,879,880,881,882,883,884,885,886,887,888,889,890,891,892,893,894,895,896,897,898,899,900,901,902,903,904,905,906,907,908,909,910,911,912,913,914,915,916,917,918,919,920,921,922,923,924,925,926,927,928,929,930,931,932,933,934,935,936,937,938,939,940,941,942,943,944,945,946,947,948,949,950,951,952,953,954,955,956,957,958,959,960,961,962,963,964,965,966,967,968,969,970,971,972,973,974,975,976,977,978,979,980,981,982,983,984,985,986,987,988,989,990,991,992,993,994,995,996,997,998,999,1000,1001,1002,1003,1004,1005,1006,1007,1008,1009,1010,1011,1012,1013,1014,1015,1016,1017,1018,1019,1020,1021,1022,1023,1024,1025,1026,1027,1028,1029,1030,1031,1032,1033,1034,1035,1036,1037,1038,1039,1040,1041,1042,1043,1044,1045,1046,1047,1048,1049,1050,1051,1052,1053,1054,1055,1056,1057,1058,1059,1060,1061,1062,1063,1064,1065,1066,1067,1068,1069,1070,1071,1072,1073,1074,1075,1076,1077,1078,1079,1080,1081,1082,1083,1084,1085,1086,1087,1088,1089,1090,1091,1092,1093,1094,1095,1096,1097,1098,1099,1100,1101,1102,1103,1104,1105,1106,1107,1108,1109,1110,1111,1112,1113,1114,1115,1116,1117,1118,1119,1120,1121,1122,1123,1124,1125,1126,1127,1128,1129,1130,1131,1132,1133,1134,1135,1136,1137,1138,1139,1140,1141,1142,1143,1144,1145,1146,1147,1148,1149,1150,1151,1152,1153,1154,1155,1156,1157,1158,1159,1160,1161,1162,1163,1164,1165,1166,1167,1168,1169,1170,1171,1172,1173,1174,1175,1176,1177,1178,1179,1180,1181,1182,1183,1184,1185,1186,1187,1188,1189,1190,1191,1192,1193,1194,1195,1196,1197,1198,1199,1200,1201,1202,1203,1204,1205,1206,1207,1208,1209,1210,1211,1212,1213,1214,1215,1216,1217,1218,1219,1220,1221,1222,1223,1224,1225,1226,1227,1228,1229,1230,1231,1232,1233,1234,1235,1236,1237,1238,1239,1240,1241,1242,1243,1244,1245,1246,1247,1248,1249,1250,1251,1252,1253,1254,1255,1256,1257,1258,1259,1260,1261,1262,1263,1264,1265,1266,1267,1268,1269,1270,1271,1272,1273,1274,1275,1276,1277,1278,1279,1280,1281,1282,1283,1284,1285,1286,1287,1288,1289,1290,1291,1292,1293,1294,1295,1296,1297,1298,1299,1300,1301,1302,1303,1304,1305,1306,1307,1308,1309,1310,1311,1312,1313,1314,1315,1316,1317,1318,1319,1320,1321,1322,1323,1324,1325,1326,1327,1328,1329,1330,1331,1332,1333,1334,1335,1336,1337,1338,1339,1340,1341,1342,1343,1344,1345,1346,1347,1348,1349,1350,1351,1352,1353,1354,1355,1356,1357,1358,1359,1360,1361,1362,1363,1364,1365,1366,1367,1368,1369,1370,1371,1372,1373,1374,1375,1376,1377,1378,1379,1380,1381,1382,1383,1384,1385,1386,1387,1388,1389,1390,1391,1392,1393,1394,1395,1396,1397,1398,1399,1400,1401,1402,1403,1404,1405,1406,1407,1408,1409,1410,1411,1412,1413,1414,1415,1416,1417,1418,1419,1420,1421,1422,1423,1424,1425,1426,1427,1428,1429,1430,1431,1432,1433,1434,1435,1436,1437,1438,1439,1440,1441,1442,1443,1444,1445,1446,1447,1448,1449,1450,1451,1452,1453,1454,1455,1456,1457,1458,1459,1460,1461,1462,1463,1464,1465,1466,1467,1468,1469,1470,1471,1472,1473,1474,1475,1476,1477,1478,1479,1480,1481,1482,1483,1484,1485,1486,1487,1488,1489,1490,1491,1492,1493,1494,1495,1496,1497,1498,1499,1500,1501,1502,1503,1504,1505,1506,1507,1508,1509,1510,1511,1512,1513,1514,1515,1516,1517,1518,1519,1520,1521,1522,1523,1524,1525,1526,1527,1528,1529,1530,1531,1532,1533,1534,1535,1536,1537,1538,1539,1540,1541,1542,1543,1544,1545,1546,1547,1548,1549,1550,1551,1552,1553,1554,1555,1556,1557,1558,1559,1560,1561,1562,1563,1564,1565,1566,1567,1568,1569,1570,1571,1572,1573,1574,1575,1576,1577,1578,1579,1580,1581,1582,1583,1584,1585,1586,1587,1588,1589,1590,1591,1592,1593,1594,1595,1596,1597,1598,1599,1600,1601,1602,1603,1604,1605,1606,1607,1608,1609,1610,1611,1612,1613,1614,1615,1616,1617,1618,1619,1620,1621,1622,1623,1624,1625,1626,1627,1628,1629,1630,1631,1632,1633,1634,1635,1636,1637,1638,1639,1640,1641,1642,1643,1644,1645,1646,1647,1648,1649,1650,1651,1652,1653,1654,1655,1656,1657,1658,1659,1660,1661,1662,1663,1664,1665,1666,1667,1668,1669,1670,1671,1672,1673,1674,1675,1676,1677,1678,1679,1680,1681,1682,1683,1684,1685,1686,1687,1688,1689,1690,1691,1692,1693,1694,1695,1696,1697,1698,1699,1700,1701,1702,1703,1704,1705,1706,1707,1708,1709,1710,1711,1712,1713,1714,1715,1716,1717,1718,1719,1720,1721,1722,1723,1724,1725,1726,1727,1728,1729,1730,1731,1732,1733,1734,1735,1736,1737,1738,1739,1740,1741,1742,1743,1744,1745,1746,1747,1748,1749,1750,1751,1752,1753,1754,1755,1756,1757,1758,1759,1760,1761,1762,1763,1764,1765,1766,1767,1768,1769,1770,1771,1772,1773,1774,1775,1776,1777,1778,1779,1780,1781,1782,1783,1784,1785,1786,1787,1788,1789,1790,1791,1792,1793,1794,1795,1796,1797,1798,1799,1800,1801,1802,1803,1804,1805,1806,1807,1808,1809,1810,1811,1812,1813,1814,1815,1816,1817,1818,1819,1820,1821,1822,1823,1824,1825,1826,1827,1828,1829,1830,1831,1832,1833,1834,1835,1836,1837,1838,1839,1840,1841,1842,1843,1844,1845,1846,1847,1848,1849,1850,1851,1852,1853,1854,1855,1856,1857,1858,1859,1860,1861,1862,1863,1864,1865,1866,1867,1868,1869,1870,1871,1872,1873,1874,1875,1876,1877,1878,1879,1880,1881,1882,1883,1884,1885,1886,1887,1888,1889,1890,1891,1892,1893,1894,1895,1896,1897,1898,1899,1900,1901,1902,1903,1904,1905,1906,1907,1908,1909,1910,1911,1912,1913,1914,1915,1916,1917,1918,1919,1920,1921,1922,1923,1924,1925,1926,1927,1928,1929,1930,1931,1932,1933,1934,1935,1936,1937,1938,1939,1940,1941,1942,1943,1944,1945,1946,1947,1948,1949,1950,1951,1952,1953,1954,1955,1956,1957,1958,1959,1960,1961,1962,1963,1964,1965,1966,1967,1968,1969,1970,1971,1972,1973,1974,1975,1976,1977,1978,1979,1980,1981,1982,1983,1984,1985,1986,1987,1988,1989,1990,1991,1992,1993,1994,1995,1996,1997,1998,1999,2000,2001,2002,2003,2004,2005,2006,2007,2008,2009,2010,2011,2012,2013,2014,2015,2016,2017,2018,2019,2020,2021,2022,2023,2024,2025,2026,2027,2028,2029,2030,2031,2032,2033,2034,2035,2036,2037,2038,2039,2040,2041,2042,2043,2044,2045,2046,2047,2048,2049,2050,2051,2052,2053,2054,2055,2056,2057,2058,2059,2060,2061,2062,2063,2064,2065,2066,2067,2068,2069,2070,2071,2072,2073,2074,2075,2076,2077,2078,2079,2080,2081,2082,2083,2084,2085,2086,2087,2088,2089,2090,2091,2092,2093,2094,2095,2096,2097,2098,2099,2100,2101,2102,2103,2104,2105,2106,2107,2108,2109,2110,2111,2112,2113,2114,2115,2116,2117,2118,2119,2120,2121,2122,2123,2124,2125,2126,2127,2128,2129,2130,2131,2132,2133,2134,2135,2136,2137,2138,2139,2140,2141,2142,2143,2144,2145,2146,2147,2148,2149,2150,2151,2152,2153,2154,2155,2156,2157,2158,2159,2160,2161,2162,2163,2164,2165,2166,2167,2168,2169,2170,2171,2172,2173,2174,2175,2176,2177,2178,2179,2180,2181,2182,2183,2184,2185,2186,2187,2188,2189,2190,2191,2192,2193,2194,2195,2196,2197,2198,2199,2200,2201,2202,2203,2204,2205,2206,2207,2208,2209,2210,2211,2212,2213,2214,2215,2216,2217,2218,2219,2220,2221,2222,2223,2224,2225,2226,2227,2228,2229,2230,2231,2232,2233,2234,2235,2236,2237,2238,2239,2240,2241,2242,2243,2244,2245,2246,2247,2248,2249,2250,2251,2252,2253,2254,2255,2256,2257,2258,2259,2260,2261,2262,2263,2264,2265,2266,2267,2268,2269,2270,2271,2272,2273,2274,2275,2276,2277,2278,2279,2280,2281,2282,2283],"tree_info":[0,0,0,0,0,0,0,0,0,0,0,0,0,0,0,0,0,0,0,0,0,0,0,0,0,0,0,0,0,0,0,0,0,0,0,0,0,0,0,0,0,0,0,0,0,0,0,0,0,0,0,0,0,0,0,0,0,0,0,0,0,0,0,0,0,0,0,0,0,0,0,0,0,0,0,0,0,0,0,0,0,0,0,0,0,0,0,0,0,0,0,0,0,0,0,0,0,0,0,0,0,0,0,0,0,0,0,0,0,0,0,0,0,0,0,0,0,0,0,0,0,0,0,0,0,0,0,0,0,0,0,0,0,0,0,0,0,0,0,0,0,0,0,0,0,0,0,0,0,0,0,0,0,0,0,0,0,0,0,0,0,0,0,0,0,0,0,0,0,0,0,0,0,0,0,0,0,0,0,0,0,0,0,0,0,0,0,0,0,0,0,0,0,0,0,0,0,0,0,0,0,0,0,0,0,0,0,0,0,0,0,0,0,0,0,0,0,0,0,0,0,0,0,0,0,0,0,0,0,0,0,0,0,0,0,0,0,0,0,0,0,0,0,0,0,0,0,0,0,0,0,0,0,0,0,0,0,0,0,0,0,0,0,0,0,0,0,0,0,0,0,0,0,0,0,0,0,0,0,0,0,0,0,0,0,0,0,0,0,0,0,0,0,0,0,0,0,0,0,0,0,0,0,0,0,0,0,0,0,0,0,0,0,0,0,0,0,0,0,0,0,0,0,0,0,0,0,0,0,0,0,0,0,0,0,0,0,0,0,0,0,0,0,0,0,0,0,0,0,0,0,0,0,0,0,0,0,0,0,0,0,0,0,0,0,0,0,0,0,0,0,0,0,0,0,0,0,0,0,0,0,0,0,0,0,0,0,0,0,0,0,0,0,0,0,0,0,0,0,0,0,0,0,0,0,0,0,0,0,0,0,0,0,0,0,0,0,0,0,0,0,0,0,0,0,0,0,0,0,0,0,0,0,0,0,0,0,0,0,0,0,0,0,0,0,0,0,0,0,0,0,0,0,0,0,0,0,0,0,0,0,0,0,0,0,0,0,0,0,0,0,0,0,0,0,0,0,0,0,0,0,0,0,0,0,0,0,0,0,0,0,0,0,0,0,0,0,0,0,0,0,0,0,0,0,0,0,0,0,0,0,0,0,0,0,0,0,0,0,0,0,0,0,0,0,0,0,0,0,0,0,0,0,0,0,0,0,0,0,0,0,0,0,0,0,0,0,0,0,0,0,0,0,0,0,0,0,0,0,0,0,0,0,0,0,0,0,0,0,0,0,0,0,0,0,0,0,0,0,0,0,0,0,0,0,0,0,0,0,0,0,0,0,0,0,0,0,0,0,0,0,0,0,0,0,0,0,0,0,0,0,0,0,0,0,0,0,0,0,0,0,0,0,0,0,0,0,0,0,0,0,0,0,0,0,0,0,0,0,0,0,0,0,0,0,0,0,0,0,0,0,0,0,0,0,0,0,0,0,0,0,0,0,0,0,0,0,0,0,0,0,0,0,0,0,0,0,0,0,0,0,0,0,0,0,0,0,0,0,0,0,0,0,0,0,0,0,0,0,0,0,0,0,0,0,0,0,0,0,0,0,0,0,0,0,0,0,0,0,0,0,0,0,0,0,0,0,0,0,0,0,0,0,0,0,0,0,0,0,0,0,0,0,0,0,0,0,0,0,0,0,0,0,0,0,0,0,0,0,0,0,0,0,0,0,0,0,0,0,0,0,0,0,0,0,0,0,0,0,0,0,0,0,0,0,0,0,0,0,0,0,0,0,0,0,0,0,0,0,0,0,0,0,0,0,0,0,0,0,0,0,0,0,0,0,0,0,0,0,0,0,0,0,0,0,0,0,0,0,0,0,0,0,0,0,0,0,0,0,0,0,0,0,0,0,0,0,0,0,0,0,0,0,0,0,0,0,0,0,0,0,0,0,0,0,0,0,0,0,0,0,0,0,0,0,0,0,0,0,0,0,0,0,0,0,0,0,0,0,0,0,0,0,0,0,0,0,0,0,0,0,0,0,0,0,0,0,0,0,0,0,0,0,0,0,0,0,0,0,0,0,0,0,0,0,0,0,0,0,0,0,0,0,0,0,0,0,0,0,0,0,0,0,0,0,0,0,0,0,0,0,0,0,0,0,0,0,0,0,0,0,0,0,0,0,0,0,0,0,0,0,0,0,0,0,0,0,0,0,0,0,0,0,0,0,0,0,0,0,0,0,0,0,0,0,0,0,0,0,0,0,0,0,0,0,0,0,0,0,0,0,0,0,0,0,0,0,0,0,0,0,0,0,0,0,0,0,0,0,0,0,0,0,0,0,0,0,0,0,0,0,0,0,0,0,0,0,0,0,0,0,0,0,0,0,0,0,0,0,0,0,0,0,0,0,0,0,0,0,0,0,0,0,0,0,0,0,0,0,0,0,0,0,0,0,0,0,0,0,0,0,0,0,0,0,0,0,0,0,0,0,0,0,0,0,0,0,0,0,0,0,0,0,0,0,0,0,0,0,0,0,0,0,0,0,0,0,0,0,0,0,0,0,0,0,0,0,0,0,0,0,0,0,0,0,0,0,0,0,0,0,0,0,0,0,0,0,0,0,0,0,0,0,0,0,0,0,0,0,0,0,0,0,0,0,0,0,0,0,0,0,0,0,0,0,0,0,0,0,0,0,0,0,0,0,0,0,0,0,0,0,0,0,0,0,0,0,0,0,0,0,0,0,0,0,0,0,0,0,0,0,0,0,0,0,0,0,0,0,0,0,0,0,0,0,0,0,0,0,0,0,0,0,0,0,0,0,0,0,0,0,0,0,0,0,0,0,0,0,0,0,0,0,0,0,0,0,0,0,0,0,0,0,0,0,0,0,0,0,0,0,0,0,0,0,0,0,0,0,0,0,0,0,0,0,0,0,0,0,0,0,0,0,0,0,0,0,0,0,0,0,0,0,0,0,0,0,0,0,0,0,0,0,0,0,0,0,0,0,0,0,0,0,0,0,0,0,0,0,0,0,0,0,0,0,0,0,0,0,0,0,0,0,0,0,0,0,0,0,0,0,0,0,0,0,0,0,0,0,0,0,0,0,0,0,0,0,0,0,0,0,0,0,0,0,0,0,0,0,0,0,0,0,0,0,0,0,0,0,0,0,0,0,0,0,0,0,0,0,0,0,0,0,0,0,0,0,0,0,0,0,0,0,0,0,0,0,0,0,0,0,0,0,0,0,0,0,0,0,0,0,0,0,0,0,0,0,0,0,0,0,0,0,0,0,0,0,0,0,0,0,0,0,0,0,0,0,0,0,0,0,0,0,0,0,0,0,0,0,0,0,0,0,0,0,0,0,0,0,0,0,0,0,0,0,0,0,0,0,0,0,0,0,0,0,0,0,0,0,0,0,0,0,0,0,0,0,0,0,0,0,0,0,0,0,0,0,0,0,0,0,0,0,0,0,0,0,0,0,0,0,0,0,0,0,0,0,0,0,0,0,0,0,0,0,0,0,0,0,0,0,0,0,0,0,0,0,0,0,0,0,0,0,0,0,0,0,0,0,0,0,0,0,0,0,0,0,0,0,0,0,0,0,0,0,0,0,0,0,0,0,0,0,0,0,0,0,0,0,0,0,0,0,0,0,0,0,0,0,0,0,0,0,0,0,0,0,0,0,0,0,0,0,0,0,0,0,0,0,0,0,0,0,0,0,0,0,0,0,0,0,0,0,0,0,0,0,0,0,0,0,0,0,0,0,0,0,0,0,0,0,0,0,0,0,0,0,0,0,0,0,0,0,0,0,0,0,0,0,0,0,0,0,0,0,0,0,0,0,0,0,0,0,0,0,0,0,0,0,0,0,0,0,0,0,0,0,0,0,0,0,0,0,0,0,0,0,0,0,0,0,0,0,0,0,0,0,0,0,0,0,0,0,0,0,0,0,0,0,0,0,0,0,0,0,0,0,0,0,0,0,0,0,0,0,0,0,0,0,0,0,0,0,0,0,0,0,0,0,0,0,0,0,0,0,0,0,0,0,0,0,0,0,0,0,0,0,0,0,0,0,0,0,0,0,0,0,0,0,0,0,0,0,0,0,0,0,0,0,0,0,0,0,0,0,0,0,0,0,0,0,0,0,0,0,0,0,0,0,0,0,0,0,0,0,0,0,0,0,0,0,0,0,0,0,0,0,0,0,0,0,0,0,0,0,0,0,0,0,0,0,0,0,0,0,0,0,0,0,0,0,0,0,0,0,0,0,0,0,0,0,0,0,0,0,0,0,0,0,0,0,0,0,0,0,0,0,0,0,0,0,0,0,0,0,0,0,0,0,0,0,0,0,0,0,0,0,0,0,0,0,0,0,0,0,0,0,0,0,0,0,0,0,0,0,0,0,0,0,0,0,0,0,0,0,0,0,0,0,0,0,0,0,0,0,0,0,0,0,0,0,0,0,0,0,0,0,0,0,0,0,0,0,0,0,0,0,0,0,0,0,0,0,0,0,0,0,0,0,0,0,0,0,0,0,0,0,0,0,0,0,0,0,0,0,0,0,0,0,0,0,0,0,0,0,0,0,0,0,0,0,0,0,0,0,0,0,0,0,0,0,0,0,0,0,0,0,0,0,0,0,0,0,0,0,0,0,0,0,0,0,0,0,0,0,0,0,0,0,0,0,0,0,0,0,0,0,0,0,0,0,0,0,0,0,0,0,0,0,0,0,0,0,0,0,0,0,0,0,0,0,0,0,0,0,0,0,0,0,0,0,0,0,0,0,0,0,0,0,0,0,0,0,0,0,0,0,0,0,0,0,0,0,0,0,0,0,0,0,0,0,0,0,0,0,0,0,0,0,0,0,0,0,0,0,0,0,0,0,0,0,0,0,0,0,0,0,0,0,0,0,0,0,0,0,0,0,0,0,0,0,0,0,0,0,0,0,0,0,0,0,0,0,0,0,0,0,0,0,0,0,0,0,0,0,0,0,0,0,0,0,0,0,0,0,0,0,0,0,0,0,0,0,0,0,0,0,0,0,0,0,0,0,0,0,0,0,0,0,0,0,0,0,0,0,0,0,0,0,0,0,0,0,0,0,0,0,0,0,0,0,0,0,0,0,0,0,0,0,0,0,0,0,0,0,0,0,0,0,0,0,0,0],"trees":[{"base_weights":[3.3989276E-3,-5.691685E-1,4.574119E-1,-6.601891E-2,5.7006004E-4,1.2466087E-2,5.9632715E-2],"categories":[],"categories_nodes":[],"categories_segments":[],"categories_sizes":[],"default_left":[0,0,0,0,0,0,0],"id":0,"left_children":[1,3,5,-1,-1,-1,-1],"loss_changes":[3.7571409E3,3.3836377E2,2.98089E2,0E0,0E0,0E0,0E0],"parents":[2147483647,0,0,1,1,2,2],"right_children":[2,4,6,-1,-1,-1,-1],"split_conditions":[9.8691195E-1,4.68375E2,4.059453E2,-6.601891E-2,5.7006004E-4,1.2466087E-2,5.9632715E-2],"split_indices":[19,33,33,0,0,0,0],"split_type":[0,0,0,0,0,0,0],"sum_hessian":[1.2451647E4,5.3946616E3,7.056986E3,4.529135E3,8.655267E2,2.637244E3,4.4197417E3],"tree_param":{"num_deleted":"0","num_feature":"46","num_nodes":"7","size_leaf_vector":"1"}},{"base_weights":[-2.4447057E-3,3.8121897E-1,-6.4037615E-1,-5.218978E-3,4.9987294E-2,-1.5768334E-2,-7.711694E-2],"categories":[],"categories_nodes":[],"categories_segments":[],"categories_sizes":[],"default_left":[0,0,0,0,0,0,0],"id":1,"left_children":[1,3,5,-1,-1,-1,-1],"loss_changes":[3.538877E3,4.9061194E2,2.2113135E2,0E0,0E0,0E0,0E0],"parents":[2147483647,0,0,1,1,2,2],"right_children":[2,4,6,-1,-1,-1,-1],"split_conditions":[1.2368164E0,2.85185E2,1.5510254E0,-5.218978E-3,4.9987294E-2,-1.5768334E-2,-7.711694E-2],"split_indices":[17,29,17,0,0,0,0],"split_type":[0,0,0,0,0,0,0],"sum_hessian":[1.2461647E4,8.032917E3,4.42873E3,1.8468944E3,6.186023E3,1.414416E3,3.014314E3],"tree_param":{"num_deleted":"0","num_feature":"46","num_nodes":"7","size_leaf_vector":"1"}},{"base_weights":[-2.5755705E-3,3.5203198E-1,-5.827533E-1,6.1233933E-3,4.896101E-2,-1.5029013E-2,-7.039025E-2],"categories":[],"categories_nodes":[],"categories_segments":[],"categories_sizes":[],"default_left":[0,0,0,0,0,0,0],"id":2,"left_children":[1,3,5,-1,-1,-1,-1],"loss_changes":[2.9656572E3,3.2813342E2,1.8061804E2,0E0,0E0,0E0,0E0],"parents":[2147483647,0,0,1,1,2,2],"right_children":[2,4,6,-1,-1,-1,-1],"split_conditions":[1.2277918E0,1.1855959E0,1.5510254E0,6.1233933E-3,4.896101E-2,-1.5029013E-2,-7.039025E-2],"split_indices":[17,19,17,0,0,0,0],"split_type":[0,0,0,0,0,0,0],"sum_hessian":[1.2417767E4,7.951192E3,4.466574E3,3.0177266E3,4.9334653E3,1.4677435E3,2.9988308E3],"tree_param":{"num_deleted":"0","num_feature":"46","num_nodes":"7","size_leaf_vector":"1"}},{"base_weights":[-8.62076E-3,3.4239894E-1,-5.2350366E-1,-2.3757615E-3,4.6837483E-2,-6.579266E-2,-5.166124E-3],"categories":[],"categories_nodes":[],"categories_segments":[],"categories_sizes":[],"default_left":[0,0,0,0,0,0,0],"id":3,"left_children":[1,3,5,-1,-1,-1,-1],"loss_changes":[2.5992996E3,4.0627887E2,3.3537573E2,0E0,0E0,0E0,0E0],"parents":[2147483647,0,0,1,1,2,2],"right_children":[2,4,6,-1,-1,-1,-1],"split_conditions":[1.1539307E0,3.651172E2,4.38625E2,-2.3757615E-3,4.6837483E-2,-6.579266E-2,-5.166124E-3],"split_indices":[17,33,33,0,0,0,0],"split_type":[0,0,0,0,0,0,0],"sum_hessian":[1.2390132E4,7.566614E3,4.8235176E3,2.1446035E3,5.4220103E3,3.4470981E3,1.3764194E3],"tree_param":{"num_deleted":"0","num_feature":"46","num_nodes":"7","size_leaf_vector":"1"}},{"base_weights":[-4.196319E-3,2.751524E-1,-5.6165034E-1,-2.807527E-3,4.0467173E-2,-6.228056E-2,-2.6674066E-3],"categories":[],"categories_nodes":[],"categories_segments":[],"categories_sizes":[],"default_left":[0,0,0,0,0,0,0],"id":4,"left_children":[1,3,5,-1,-1,-1,-1],"loss_changes":[2.2362441E3,3.874674E2,1.4014587E2,0E0,0E0,0E0,0E0],"parents":[2147483647,0,0,1,1,2,2],"right_children":[2,4,6,-1,-1,-1,-1],"split_conditions":[1.3566895E0,3.0651093E2,3.992921E2,-2.807527E-3,4.0467173E-2,-6.228056E-2,-2.6674066E-3],"split_indices":[17,29,29,0,0,0,0],"split_type":[0,0,0,0,0,0,0],"sum_hessian":[1.2367907E4,8.576503E3,3.7914043E3,2.8013296E3,5.7751733E3,3.2551238E3,5.362804E2],"tree_param":{"num_deleted":"0","num_feature":"46","num_nodes":"7","size_leaf_vector":"1"}},{"base_weights":[-1.2376853E-2,2.9937804E-1,-4.458911E-1,-2.125364E-3,3.8818583E-2,-5.7231404E-2,-6.1595715E-3],"categories":[],"categories_nodes":[],"categories_segments":[],"categories_sizes":[],"default_left":[0,0,0,0,0,0,0],"id":5,"left_children":[1,3,5,-1,-1,-1,-1],"loss_changes":[1.9300364E3,2.4546222E2,2.5441895E2,0E0,0E0,0E0,0E0],"parents":[2147483647,0,0,1,1,2,2],"right_children":[2,4,6,-1,-1,-1,-1],"split_conditions":[1.1188354E0,2.8848373E2,3.516387E2,-2.125364E-3,3.8818583E-2,-5.7231404E-2,-6.1595715E-3],"split_indices":[17,29,29,0,0,0,0],"split_type":[0,0,0,0,0,0,0],"sum_hessian":[1.2292961E4,7.330654E3,4.962307E3,1.755017E3,5.5756367E3,3.3657954E3,1.5965117E3],"tree_param":{"num_deleted":"0","num_feature":"46","num_nodes":"7","size_leaf_vector":"1"}},{"base_weights":[-7.618697E-3,-4.051695E-1,2.9036707E-1,-1.3718915E-2,-6.1161466E-2,4.258992E-2,5.416363E-3],"categories":[],"categories_nodes":[],"categories_segments":[],"categories_sizes":[],"default_left":[0,0,0,0,0,0,0],"id":6,"left_children":[1,3,5,-1,-1,-1,-1],"loss_changes":[1.6871458E3,2.5320795E2,2.380033E2,0E0,0E0,0E0,0E0],"parents":[2147483647,0,0,1,1,2,2],"right_children":[2,4,6,-1,-1,-1,-1],"split_conditions":[9.6611863E-1,1.7521973E0,5.1063936E-2,-1.3718915E-2,-6.1161466E-2,4.258992E-2,5.416363E-3],"split_indices":[19,17,27,0,0,0,0],"split_type":[0,0,0,0,0,0,0],"sum_hessian":[1.2248679E4,5.093547E3,7.155132E3,2.940762E3,2.1527852E3,4.0361243E3,3.1190078E3],"tree_param":{"num_deleted":"0","num_feature":"46","num_nodes":"7","size_leaf_vector":"1"}},{"base_weights":[-3.8904992E-3,-4.0478367E-1,2.5708523E-1,-5.1737905E-2,-5.6240144E-3,4.1380506E-2,5.6200344E-3],"categories":[],"categories_nodes":[],"categories_segments":[],"categories_sizes":[],"default_left":[0,0,0,0,0,0,0],"id":7,"left_children":[1,3,5,-1,-1,-1,-1],"loss_changes":[1.4883857E3,1.908913E2,2.4830914E2,0E0,0E0,0E0,0E0],"parents":[2147483647,0,0,1,1,2,2],"right_children":[2,4,6,-1,-1,-1,-1],"split_conditions":[9.1230035E-1,4.059453E2,4.0842053E-2,-5.1737905E-2,-5.6240144E-3,4.1380506E-2,5.6200344E-3],"split_indices":[19,33,27,0,0,0,0],"split_type":[0,0,0,0,0,0,0],"sum_hessian":[1.2231478E4,4.605611E3,7.625866E3,3.114941E3,1.4906703E3,3.6884329E3,3.9374333E3],"tree_param":{"num_deleted":"0","num_feature":"46","num_nodes":"7","size_leaf_vector":"1"}},{"base_weights":[-1.1129514E-2,2.7422035E-1,-3.420712E-1,4.5195576E-3,3.970964E-2,-4.8698604E-2,-3.1307004E-3],"categories":[],"categories_nodes":[],"categories_segments":[],"categories_sizes":[],"default_left":[0,0,0,0,0,0,0],"id":8,"left_children":[1,3,5,-1,-1,-1,-1],"loss_changes":[1.340148E3,1.9711847E2,2.7998956E2,0E0,0E0,0E0,0E0],"parents":[2147483647,0,0,1,1,2,2],"right_children":[2,4,6,-1,-1,-1,-1],"split_conditions":[1.0090942E0,4.04625E2,4.1335938E2,4.5195576E-3,3.970964E-2,-4.8698604E-2,-3.1307004E-3],"split_indices":[17,33,33,0,0,0,0],"split_type":[0,0,0,0,0,0,0],"sum_hessian":[1.2198032E4,6.6422437E3,5.5557886E3,2.7969363E3,3.8453074E3,3.4022156E3,2.153573E3],"tree_param":{"num_deleted":"0","num_feature":"46","num_nodes":"7","size_leaf_vector":"1"}},{"base_weights":[-1.2617723E-2,-3.616513E-1,2.1576859E-1,-4.1885465E-2,4.755844E-3,3.5532054E-2,3.8043682E-3],"categories":[],"categories_nodes":[],"categories_segments":[],"categories_sizes":[],"default_left":[0,0,0,0,0,0,0],"id":9,"left_children":[1,3,5,-1,-1,-1,-1],"loss_changes":[1.1249468E3,1.5026324E2,1.9891061E2,0E0,0E0,0E0,0E0],"parents":[2147483647,0,0,1,1,2,2],"right_children":[2,4,6,-1,-1,-1,-1],"split_conditions":[9.1230035E-1,4.831875E2,4.0842053E-2,-4.1885465E-2,4.755844E-3,3.5532054E-2,3.8043682E-3],"split_indices":[19,33,27,0,0,0,0],"split_type":[0,0,0,0,0,0,0],"sum_hessian":[1.2133294E4,4.568276E3,7.5650176E3,3.9873193E3,5.809564E2,3.6778496E3,3.8871682E3],"tree_param":{"num_deleted":"0","num_feature":"46","num_nodes":"7","size_leaf_vector":"1"}},{"base_weights":[-1.166986E-2,1.7343062E-1,-4.3471512E-1,-5.7662698E-3,3.0237744E-2,-4.8448194E-2,-9.3391066E-4],"categories":[],"categories_nodes":[],"categories_segments":[],"categories_sizes":[],"default_left":[0,0,0,0,0,0,0],"id":10,"left_children":[1,3,5,-1,-1,-1,-1],"loss_changes":[1.0994597E3,3.0982516E2,8.5777466E1,0E0,0E0,0E0,0E0],"parents":[2147483647,0,0,1,1,2,2],"right_children":[2,4,6,-1,-1,-1,-1],"split_conditions":[1.446167E0,3.8808594E2,4.879297E2,-5.7662698E-3,3.0237744E-2,-4.8448194E-2,-9.3391066E-4],"split_indices":[17,33,33,0,0,0,0],"split_type":[0,0,0,0,0,0,0],"sum_hessian":[1.2077776E4,8.812132E3,3.265644E3,3.3540166E3,5.4581157E3,2.799202E3,4.664421E2],"tree_param":{"num_deleted":"0","num_feature":"46","num_nodes":"7","size_leaf_vector":"1"}},{"base_weights":[-8.626579E-3,2.4221505E-1,-2.9579282E-1,2.925705E-3,3.3435635E-2,-9.157792E-3,-5.016268E-2],"categories":[],"categories_nodes":[],"categories_segments":[],"categories_sizes":[],"default_left":[0,0,0,0,0,0,0],"id":11,"left_children":[1,3,5,-1,-1,-1,-1],"loss_changes":[1.0055052E3,1.3678772E2,2.2706262E2,0E0,0E0,0E0,0E0],"parents":[2147483647,0,0,1,1,2,2],"right_children":[2,4,6,-1,-1,-1,-1],"split_conditions":[9.942627E-1,3E0,1.7834473E0,2.925705E-3,3.3435635E-2,-9.157792E-3,-5.016268E-2],"split_indices":[17,39,17,0,0,0,0],"split_type":[0,0,0,0,0,0,0],"sum_hessian":[1.1964288E4,6.469591E3,5.4946973E3,2.351742E3,4.1178486E3,3.4835051E3,2.011192E3],"tree_param":{"num_deleted":"0","num_feature":"46","num_nodes":"7","size_leaf_vector":"1"}},{"base_weights":[-9.155322E-3,1.5523015E-1,-3.898575E-1,-2.3080786E-3,2.8026694E-2,-4.2207204E-2,3.2215973E-3],"categories":[],"categories_nodes":[],"categories_segments":[],"categories_sizes":[],"default_left":[0,0,0,0,0,0,0],"id":12,"left_children":[1,3,5,-1,-1,-1,-1],"loss_changes":[8.7270355E2,2.2450339E2,7.068573E1,0E0,0E0,0E0,0E0],"parents":[2147483647,0,0,1,1,2,2],"right_children":[2,4,6,-1,-1,-1,-1],"split_conditions":[1.446167E0,3.317439E2,1.7E1,-2.3080786E-3,2.8026694E-2,-4.2207204E-2,3.2215973E-3],"split_indices":[17,29,31,0,0,0,0],"split_type":[0,0,0,0,0,0,0],"sum_hessian":[1.1977967E4,8.77934E3,3.1986262E3,3.9548562E3,4.824484E3,2.9718079E3,2.2681827E2],"tree_param":{"num_deleted":"0","num_feature":"46","num_nodes":"7","size_leaf_vector":"1"}},{"base_weights":[-7.6020053E-3,-2.1277772E-1,1.933367E-1,-3.0061323E-2,-7.3834014E-4,2.8598184E-2,-3.8727936E-3],"categories":[],"categories_nodes":[],"categories_segments":[],"categories_sizes":[],"default_left":[0,0,0,0,0,0,0],"id":13,"left_children":[1,3,5,-1,-1,-1,-1],"loss_changes":[5.723099E2,1.2137479E2,1.6228409E2,0E0,0E0,0E0,0E0],"parents":[2147483647,0,0,1,1,2,2],"right_children":[2,4,6,-1,-1,-1,-1],"split_conditions":[4.04625E2,3E0,1.1609781E-1,-3.0061323E-2,-7.3834014E-4,2.8598184E-2,-3.8727936E-3],"split_indices":[33,39,25,0,0,0,0],"split_type":[0,0,0,0,0,0,0],"sum_hessian":[1.1883851E4,5.850781E3,6.0330693E3,3.7734844E3,2.0772961E3,4.145686E3,1.8873833E3],"tree_param":{"num_deleted":"0","num_feature":"46","num_nodes":"7","size_leaf_vector":"1"}},{"base_weights":[-1.0381095E-2,1.2089976E-1,-4.0807545E-1,-1.8805262E-3,2.5917662E-2,-8.646657E-3,-4.6236977E-2],"categories":[],"categories_nodes":[],"categories_segments":[],"categories_sizes":[],"default_left":[0,0,0,0,0,0,0],"id":14,"left_children":[1,3,5,-1,-1,-1,-1],"loss_changes":[7.252095E2,2.0779059E2,2.011145E1,0E0,0E0,0E0,0E0],"parents":[2147483647,0,0,1,1,2,2],"right_children":[2,4,6,-1,-1,-1,-1],"split_conditions":[1.6437073E0,1.2229619E0,1.8830719E0,-1.8805262E-3,2.5917662E-2,-8.646657E-3,-4.6236977E-2],"split_indices":[17,19,17,0,0,0,0],"split_type":[0,0,0,0,0,0,0],"sum_hessian":[1.1945369E4,9.504038E3,2.4413313E3,5.1573867E3,4.3466514E3,7.270789E2,1.7142523E3],"tree_param":{"num_deleted":"0","num_feature":"46","num_nodes":"7","size_leaf_vector":"1"}},{"base_weights":[-7.863469E-3,1.1473133E-1,-3.8508615E-1,2.2103975E-2,-4.54854E-3,-4.140358E-2,-4.754543E-4],"categories":[],"categories_nodes":[],"categories_segments":[],"categories_sizes":[],"default_left":[0,0,0,0,0,0,0],"id":15,"left_children":[1,3,5,-1,-1,-1,-1],"loss_changes":[6.36566E2,1.8783961E2,3.5152893E1,0E0,0E0,0E0,0E0],"parents":[2147483647,0,0,1,1,2,2],"right_children":[2,4,6,-1,-1,-1,-1],"split_conditions":[1.6437073E0,4.8687987E-2,4.1227768E2,2.2103975E-2,-4.54854E-3,-4.140358E-2,-4.754543E-4],"split_indices":[17,27,29,0,0,0,0],"split_type":[0,0,0,0,0,0,0],"sum_hessian":[1.180955E4,9.438088E3,2.371462E3,5.445327E3,3.992761E3,2.1213716E3,2.5009027E2],"tree_param":{"num_deleted":"0","num_feature":"46","num_nodes":"7","size_leaf_vector":"1"}},{"base_weights":[-1.3496947E-2,1.9107832E-1,-2.0905574E-1,2.7294487E-2,7.0941285E-4,-3.379074E-2,4.8854644E-4],"categories":[],"categories_nodes":[],"categories_segments":[],"categories_sizes":[],"default_left":[0,0,0,0,0,0,0],"id":16,"left_children":[1,3,5,-1,-1,-1,-1],"loss_changes":[5.5192737E2,1.0013997E2,1.951814E2,0E0,0E0,0E0,0E0],"parents":[2147483647,0,0,1,1,2,2],"right_children":[2,4,6,-1,-1,-1,-1],"split_conditions":[8.964844E-1,6.174953E-2,4.0716406E2,2.7294487E-2,7.0941285E-4,-3.379074E-2,4.8854644E-4],"split_indices":[17,27,33,0,0,0,0],"split_type":[0,0,0,0,0,0,0],"sum_hessian":[1.1797457E4,5.7770063E3,6.0204507E3,3.6633984E3,2.1136077E3,3.3958008E3,2.6246501E3],"tree_param":{"num_deleted":"0","num_feature":"46","num_nodes":"7","size_leaf_vector":"1"}},{"base_weights":[-6.3774753E-3,1.0562455E-1,-3.5227802E-1,-6.1968775E-3,2.07129E-2,-3.7629005E-2,1.1154673E-3],"categories":[],"categories_nodes":[],"categories_segments":[],"categories_sizes":[],"default_left":[0,0,0,0,0,0,0],"id":17,"left_children":[1,3,5,-1,-1,-1,-1],"loss_changes":[5.300859E2,1.8940915E2,3.3366425E1,0E0,0E0,0E0,0E0],"parents":[2147483647,0,0,1,1,2,2],"right_children":[2,4,6,-1,-1,-1,-1],"split_conditions":[1.6437073E0,3E0,4.3178635E2,-6.1968775E-3,2.07129E-2,-3.7629005E-2,1.1154673E-3],"split_indices":[17,39,29,0,0,0,0],"split_type":[0,0,0,0,0,0,0],"sum_hessian":[1.1722168E4,9.379682E3,2.3424866E3,3.6849622E3,5.694719E3,2.164125E3,1.7836147E2],"tree_param":{"num_deleted":"0","num_feature":"46","num_nodes":"7","size_leaf_vector":"1"}},{"base_weights":[-1.787453E-2,1.6095348E-1,-2.2328562E-1,1.0301359E-3,2.4766756E-2,-7.5174035E-3,-3.996221E-2],"categories":[],"categories_nodes":[],"categories_segments":[],"categories_sizes":[],"default_left":[0,0,0,0,0,0,0],"id":18,"left_children":[1,3,5,-1,-1,-1,-1],"loss_changes":[5.025425E2,9.375087E1,1.3530157E2,0E0,0E0,0E0,0E0],"parents":[2147483647,0,0,1,1,2,2],"right_children":[2,4,6,-1,-1,-1,-1],"split_conditions":[9.942627E-1,9.386253E-1,1.8665771E0,1.0301359E-3,2.4766756E-2,-7.5174035E-3,-3.996221E-2],"split_indices":[17,26,17,0,0,0,0],"split_type":[0,0,0,0,0,0,0],"sum_hessian":[1.1702494E4,6.3717607E3,5.330733E3,2.7364333E3,3.6353274E3,3.6724312E3,1.6583018E3],"tree_param":{"num_deleted":"0","num_feature":"46","num_nodes":"7","size_leaf_vector":"1"}},{"base_weights":[-1.924205E-2,1.6157176E-1,-1.9115056E-1,-3.462356E-3,2.1383805E-2,-3.2456156E-2,-1.130278E-3],"categories":[],"categories_nodes":[],"categories_segments":[],"categories_sizes":[],"default_left":[0,0,0,0,0,0,0],"id":19,"left_children":[1,3,5,-1,-1,-1,-1],"loss_changes":[4.239785E2,7.616467E1,1.628697E2,0E0,0E0,0E0,0E0],"parents":[2147483647,0,0,1,1,2,2],"right_children":[2,4,6,-1,-1,-1,-1],"split_conditions":[8.964844E-1,3.4792188E2,3.891172E2,-3.462356E-3,2.1383805E-2,-3.2456156E-2,-1.130278E-3],"split_indices":[17,33,33,0,0,0,0],"split_type":[0,0,0,0,0,0,0],"sum_hessian":[1.1646413E4,5.705492E3,5.9409214E3,1.2712134E3,4.434279E3,2.9488333E3,2.9920881E3],"tree_param":{"num_deleted":"0","num_feature":"46","num_nodes":"7","size_leaf_vector":"1"}},{"base_weights":[-1.3235618E-2,7.036133E-2,-3.6801025E-1,2.1537865E-2,-3.590509E-3,-3.8039144E-2,2.8946894E-4],"categories":[],"categories_nodes":[],"categories_segments":[],"categories_sizes":[],"default_left":[0,0,0,0,0,0,0],"id":20,"left_children":[1,3,5,-1,-1,-1,-1],"loss_changes":[3.9904126E2,1.775849E2,1.2856415E1,0E0,0E0,0E0,0E0],"parents":[2147483647,0,0,1,1,2,2],"right_children":[2,4,6,-1,-1,-1,-1],"split_conditions":[1.8830719E0,4.9997754E-2,1.8E1,2.1537865E-2,-3.590509E-3,-3.8039144E-2,2.8946894E-4],"split_indices":[17,25,31,0,0,0,0],"split_type":[0,0,0,0,0,0,0],"sum_hessian":[1.1581651E4,1.0021839E4,1.5598123E3,3.8039578E3,6.2178813E3,1.4846757E3,7.513663E1],"tree_param":{"num_deleted":"0","num_feature":"46","num_nodes":"7","size_leaf_vector":"1"}},{"base_weights":[-9.278388E-3,-1.7091773E-1,1.491755E-1,6.5362157E-4,-2.6709134E-2,2.2569502E-2,-3.8038844E-3],"categories":[],"categories_nodes":[],"categories_segments":[],"categories_sizes":[],"default_left":[0,0,0,0,0,0,0],"id":21,"left_children":[1,3,5,-1,-1,-1,-1],"loss_changes":[3.46606E2,1.15617615E2,1.0692976E2,0E0,0E0,0E0,0E0],"parents":[2147483647,0,0,1,1,2,2],"right_children":[2,4,6,-1,-1,-1,-1],"split_conditions":[4.059453E2,8.5961914E-1,1.1609781E-1,6.5362157E-4,-2.6709134E-2,2.2569502E-2,-3.8038844E-3],"split_indices":[33,17,25,0,0,0,0],"split_type":[0,0,0,0,0,0,0],"sum_hessian":[1.1537265E4,5.6722866E3,5.864978E3,2.3212637E3,3.351023E3,4.0174111E3,1.847567E3],"tree_param":{"num_deleted":"0","num_feature":"46","num_nodes":"7","size_leaf_vector":"1"}},{"base_weights":[-1.3951303E-2,7.044362E-2,-3.191779E-1,-3.993219E-3,1.9688873E-2,-3.3393458E-2,1.1687771E-3],"categories":[],"categories_nodes":[],"categories_segments":[],"categories_sizes":[],"default_left":[0,0,0,0,0,0,0],"id":22,"left_children":[1,3,5,-1,-1,-1,-1],"loss_changes":[3.4367517E2,1.5562183E2,1.7972473E1,0E0,0E0,0E0,0E0],"parents":[2147483647,0,0,1,1,2,2],"right_children":[2,4,6,-1,-1,-1,-1],"split_conditions":[1.7521973E0,4.3639062E2,1.8E1,-3.993219E-3,1.9688873E-2,-3.3393458E-2,1.1687771E-3],"split_indices":[17,33,31,0,0,0,0],"split_type":[0,0,0,0,0,0,0],"sum_hessian":[1.1468805E4,9.587169E3,1.8816362E3,5.4841587E3,4.1030103E3,1.7924187E3,8.921756E1],"tree_param":{"num_deleted":"0","num_feature":"46","num_nodes":"7","size_leaf_vector":"1"}},{"base_weights":[-2.2783307E-2,5.0073512E-2,-3.2386163E-1,-4.6630283E-3,1.7833546E-2,-3.3857893E-2,1.1729368E-3],"categories":[],"categories_nodes":[],"categories_segments":[],"categories_sizes":[],"default_left":[0,0,0,0,0,0,0],"id":23,"left_children":[1,3,5,-1,-1,-1,-1],"loss_changes":[2.8954892E2,1.4349986E2,1.6623596E1,0E0,0E0,0E0,0E0],"parents":[2147483647,0,0,1,1,2,2],"right_children":[2,4,6,-1,-1,-1,-1],"split_conditions":[1.8665771E0,4.4446094E2,1.8E1,-4.6630283E-3,1.7833546E-2,-3.3857893E-2,1.1729368E-3],"split_indices":[17,33,31,0,0,0,0],"split_type":[0,0,0,0,0,0,0],"sum_hessian":[1.1460654E4,9.898934E3,1.56172E3,6.0066396E3,3.892294E3,1.4875791E3,7.414089E1],"tree_param":{"num_deleted":"0","num_feature":"46","num_nodes":"7","size_leaf_vector":"1"}},{"base_weights":[-1.3500503E-2,-1.2976478E-1,1.7395571E-1,-5.0256154E-3,-3.3798613E-2,2.4786383E-2,3.2115206E-3],"categories":[],"categories_nodes":[],"categories_segments":[],"categories_sizes":[],"default_left":[0,0,0,0,0,0,0],"id":24,"left_children":[1,3,5,-1,-1,-1,-1],"loss_changes":[2.9489764E2,1.2017111E2,4.6661133E1,0E0,0E0,0E0,0E0],"parents":[2147483647,0,0,1,1,2,2],"right_children":[2,4,6,-1,-1,-1,-1],"split_conditions":[1.2229619E0,2.0806885E0,9.407675E-2,-5.0256154E-3,-3.3798613E-2,2.4786383E-2,3.2115206E-3],"split_indices":[19,17,25,0,0,0,0],"split_type":[0,0,0,0,0,0,0],"sum_hessian":[1.1495117E4,7.2847324E3,4.210385E3,6.1700703E3,1.114662E3,2.2766296E3,1.9337549E3],"tree_param":{"num_deleted":"0","num_feature":"46","num_nodes":"7","size_leaf_vector":"1"}},{"base_weights":[-1.3180668E-2,-1.2784284E-1,1.4577238E-1,-1.7365865E-2,1.1237859E-2,2.3313662E-2,2.1239722E-3],"categories":[],"categories_nodes":[],"categories_segments":[],"categories_sizes":[],"default_left":[0,0,0,0,0,0,0],"id":25,"left_children":[1,3,5,-1,-1,-1,-1],"loss_changes":[2.4483897E2,1.047324E2,5.6717262E1,0E0,0E0,0E0,0E0],"parents":[2147483647,0,0,1,1,2,2],"right_children":[2,4,6,-1,-1,-1,-1],"split_conditions":[1.1808227E0,1.6E1,4.3518253E-2,-1.7365865E-2,1.1237859E-2,2.3313662E-2,2.1239722E-3],"split_indices":[19,31,27,0,0,0,0],"split_type":[0,0,0,0,0,0,0],"sum_hessian":[1.1411072E4,6.742808E3,4.6682646E3,5.89549E3,8.473178E2,2.2310261E3,2.4372385E3],"tree_param":{"num_deleted":"0","num_feature":"46","num_nodes":"7","size_leaf_vector":"1"}},{"base_weights":[-4.1026617E-3,5.2304868E-2,-3.0969724E-1,-1.2799918E-2,1.1549457E-2,-3.1771313E-2,7.9730446E-5],"categories":[],"categories_nodes":[],"categories_segments":[],"categories_sizes":[],"default_left":[0,0,0,0,0,0,0],"id":26,"left_children":[1,3,5,-1,-1,-1,-1],"loss_changes":[2.2869052E2,1.4309247E2,5.3936462E0,0E0,0E0,0E0,0E0],"parents":[2147483647,0,0,1,1,2,2],"right_children":[2,4,6,-1,-1,-1,-1],"split_conditions":[2.0806885E0,3.411797E2,1.8E1,-1.2799918E-2,1.1549457E-2,-3.1771313E-2,7.9730446E-5],"split_indices":[17,33,31,0,0,0,0],"split_type":[0,0,0,0,0,0,0],"sum_hessian":[1.13270625E4,1.0261759E4,1.0653029E3,2.3968914E3,7.8648677E3,1.01582886E3,4.9474037E1],"tree_param":{"num_deleted":"0","num_feature":"46","num_nodes":"7","size_leaf_vector":"1"}},{"base_weights":[-1.0087224E-2,-2.309114E-1,6.738103E-2,-2.5079561E-2,3.2373355E-3,-2.7236138E-3,2.0024648E-2],"categories":[],"categories_nodes":[],"categories_segments":[],"categories_sizes":[],"default_left":[0,0,0,0,0,0,0],"id":27,"left_children":[1,3,5,-1,-1,-1,-1],"loss_changes":[2.2664938E2,2.6078613E1,1.300232E2,0E0,0E0,0E0,0E0],"parents":[2147483647,0,0,1,1,2,2],"right_children":[2,4,6,-1,-1,-1,-1],"split_conditions":[6.5405273E-1,1.8E1,9.6627516E-1,-2.5079561E-2,3.2373355E-3,-2.7236138E-3,2.0024648E-2],"split_indices":[19,31,26,0,0,0,0],"split_type":[0,0,0,0,0,0,0],"sum_hessian":[1.133951E4,2.4305305E3,8.9089795E3,2.3039631E3,1.2656752E2,5.667795E3,3.2411843E3],"tree_param":{"num_deleted":"0","num_feature":"46","num_nodes":"7","size_leaf_vector":"1"}},{"base_weights":[-1.4583211E-2,-1.5157993E-1,9.56547E-2,2.5398664E-3,-2.1177342E-2,1.7044991E-2,-1.6702599E-3],"categories":[],"categories_nodes":[],"categories_segments":[],"categories_sizes":[],"default_left":[0,0,0,0,0,0,0],"id":28,"left_children":[1,3,5,-1,-1,-1,-1],"loss_changes":[2.0078607E2,6.809161E1,6.5439644E1,0E0,0E0,0E0,0E0],"parents":[2147483647,0,0,1,1,2,2],"right_children":[2,4,6,-1,-1,-1,-1],"split_conditions":[3E0,3.164139E-2,8.964844E-1,2.5398664E-3,-2.1177342E-2,1.7044991E-2,-1.6702599E-3],"split_indices":[39,25,17,0,0,0,0],"split_type":[0,0,0,0,0,0,0],"sum_hessian":[1.1335046E4,4.886896E3,6.4481504E3,1.3869851E3,3.4999106E3,3.5607546E3,2.887396E3],"tree_param":{"num_deleted":"0","num_feature":"46","num_nodes":"7","size_leaf_vector":"1"}},{"base_weights":[-1.4253333E-2,3.7771977E-2,-2.920074E-1,-4.6781884E-3,1.6742183E-2,-2.9665306E-2,3.634753E-4],"categories":[],"categories_nodes":[],"categories_segments":[],"categories_sizes":[],"default_left":[0,0,0,0,0,0,0],"id":29,"left_children":[1,3,5,-1,-1,-1,-1],"loss_changes":[1.8832759E2,1.308237E2,3.8940735E0,0E0,0E0,0E0,0E0],"parents":[2147483647,0,0,1,1,2,2],"right_children":[2,4,6,-1,-1,-1,-1],"split_conditions":[2.0806885E0,9.6877867E-1,5.036368E2,-4.6781884E-3,1.6742183E-2,-2.9665306E-2,3.634753E-4],"split_indices":[17,26,29,0,0,0,0],"split_type":[0,0,0,0,0,0,0],"sum_hessian":[1.1269547E4,1.0219391E4,1.0501554E3,6.5722974E3,3.6470938E3,1.0305422E3,1.9613144E1],"tree_param":{"num_deleted":"0","num_feature":"46","num_nodes":"7","size_leaf_vector":"1"}},{"base_weights":[-4.8492523E-3,-1.39022E-1,1.0116129E-1,3.0911532E-3,-2.0510608E-2,1.4329656E-2,-5.966888E-3],"categories":[],"categories_nodes":[],"categories_segments":[],"categories_sizes":[],"default_left":[0,0,0,0,0,0,0],"id":30,"left_children":[1,3,5,-1,-1,-1,-1],"loss_changes":[1.8862599E2,7.190019E1,5.893197E1,0E0,0E0,0E0,0E0],"parents":[2147483647,0,0,1,1,2,2],"right_children":[2,4,6,-1,-1,-1,-1],"split_conditions":[3E0,2.0039428E-3,5E0,3.0911532E-3,-2.0510608E-2,1.4329656E-2,-5.966888E-3],"split_indices":[39,28,32,0,0,0,0],"split_type":[0,0,0,0,0,0,0],"sum_hessian":[1.1272616E4,4.837991E3,6.4346245E3,1.5036454E3,3.3343462E3,5.1851953E3,1.2494294E3],"tree_param":{"num_deleted":"0","num_feature":"46","num_nodes":"7","size_leaf_vector":"1"}},{"base_weights":[-8.444456E-3,-1.980488E-1,6.090752E-2,-2.2587067E-2,2.0645417E-3,1.834742E-2,-2.07306E-3],"categories":[],"categories_nodes":[],"categories_segments":[],"categories_sizes":[],"default_left":[0,0,0,0,0,0,0],"id":31,"left_children":[1,3,5,-1,-1,-1,-1],"loss_changes":[1.7296642E2,2.6033798E1,1.01105316E2,0E0,0E0,0E0,0E0],"parents":[2147483647,0,0,1,1,2,2],"right_children":[2,4,6,-1,-1,-1,-1],"split_conditions":[6.7943233E-1,4.6979688E2,4.7992732E-2,-2.2587067E-2,2.0645417E-3,1.834742E-2,-2.07306E-3],"split_indices":[19,33,25,0,0,0,0],"split_type":[0,0,0,0,0,0,0],"sum_hessian":[1.1236551E4,2.5123162E3,8.724234E3,2.199664E3,3.126522E2,2.9891267E3,5.7351074E3],"tree_param":{"num_deleted":"0","num_feature":"46","num_nodes":"7","size_leaf_vector":"1"}},{"base_weights":[-1.1710681E-2,-9.059909E-2,1.4352067E-1,-1.2824284E-2,1.4248419E-2,1.7082583E-2,-5.2927933E-3],"categories":[],"categories_nodes":[],"categories_segments":[],"categories_sizes":[],"default_left":[0,0,0,0,0,0,0],"id":32,"left_children":[1,3,5,-1,-1,-1,-1],"loss_changes":[1.6338263E2,9.509145E1,3.3312767E1,0E0,0E0,0E0,0E0],"parents":[2147483647,0,0,1,1,2,2],"right_children":[2,4,6,-1,-1,-1,-1],"split_conditions":[1.280596E0,1.7E1,2.090625E1,-1.2824284E-2,1.4248419E-2,1.7082583E-2,-5.2927933E-3],"split_indices":[19,31,1,0,0,0,0],"split_type":[0,0,0,0,0,0,0],"sum_hessian":[1.1279957E4,7.7551562E3,3.5248015E3,7.064081E3,6.910752E2,3.2091755E3,3.1562595E2],"tree_param":{"num_deleted":"0","num_feature":"46","num_nodes":"7","size_leaf_vector":"1"}},{"base_weights":[-7.147144E-3,-1.8268977E-1,6.496635E-2,4.254943E-3,-2.3700774E-2,1.8616702E-2,-9.788648E-4],"categories":[],"categories_nodes":[],"categories_segments":[],"categories_sizes":[],"default_left":[0,0,0,0,0,0,0],"id":33,"left_children":[1,3,5,-1,-1,-1,-1],"loss_changes":[1.6673662E2,5.6876984E1,8.707309E1,0E0,0E0,0E0,0E0],"parents":[2147483647,0,0,1,1,2,2],"right_children":[2,4,6,-1,-1,-1,-1],"split_conditions":[3.411797E2,7E0,4.1200444E-2,4.254943E-3,-2.3700774E-2,1.8616702E-2,-9.788648E-4],"split_indices":[33,31,25,0,0,0,0],"split_type":[0,0,0,0,0,0,0],"sum_hessian":[1.1233827E4,2.8246194E3,8.409208E3,5.909208E2,2.2336987E3,2.639466E3,5.7697417E3],"tree_param":{"num_deleted":"0","num_feature":"46","num_nodes":"7","size_leaf_vector":"1"}},{"base_weights":[-7.848635E-3,4.0034946E-2,-2.6971108E-1,-2.800616E-3,1.6433189E-2,-2.7488152E-2,2.716136E-4],"categories":[],"categories_nodes":[],"categories_segments":[],"categories_sizes":[],"default_left":[0,0,0,0,0,0,0],"id":34,"left_children":[1,3,5,-1,-1,-1,-1],"loss_changes":[1.6372426E2,9.916757E1,3.584381E0,0E0,0E0,0E0,0E0],"parents":[2147483647,0,0,1,1,2,2],"right_children":[2,4,6,-1,-1,-1,-1],"split_conditions":[2.0806885E0,4.15E1,4.9178127E1,-2.800616E-3,1.6433189E-2,-2.7488152E-2,2.716136E-4],"split_indices":[17,3,40,0,0,0,0],"split_type":[0,0,0,0,0,0,0],"sum_hessian":[1.11961455E4,1.0181495E4,1.01465094E3,7.0803433E3,3.1011514E3,9.869112E2,2.7739756E1],"tree_param":{"num_deleted":"0","num_feature":"46","num_nodes":"7","size_leaf_vector":"1"}},{"base_weights":[-1.1831253E-2,3.5011366E-2,-2.674206E-1,-6.8977135E-3,1.0556198E-2,2.7194328E-4,-2.7094373E-2],"categories":[],"categories_nodes":[],"categories_segments":[],"categories_sizes":[],"default_left":[0,0,0,0,0,0,0],"id":35,"left_children":[1,3,5,-1,-1,-1,-1],"loss_changes":[1.5497054E2,8.91738E1,2.6397858E0,0E0,0E0,0E0,0E0],"parents":[2147483647,0,0,1,1,2,2],"right_children":[2,4,6,-1,-1,-1,-1],"split_conditions":[2.0806885E0,1.5828775E1,2E0,-6.8977135E-3,1.0556198E-2,2.7194328E-4,-2.7094373E-2],"split_indices":[17,40,45,0,0,0,0],"split_type":[0,0,0,0,0,0,0],"sum_hessian":[1.1161879E4,1.0162402E4,9.9947675E2,4.1167686E3,6.045634E3,1.5804148E1,9.836726E2],"tree_param":{"num_deleted":"0","num_feature":"46","num_nodes":"7","size_leaf_vector":"1"}},{"base_weights":[-1.17784375E-2,3.2821596E-2,-2.5574395E-1,1.1868762E-2,-5.3512757E-3,-2.6059765E-2,1.8139687E-4],"categories":[],"categories_nodes":[],"categories_segments":[],"categories_sizes":[],"default_left":[0,0,0,0,0,0,0],"id":36,"left_children":[1,3,5,-1,-1,-1,-1],"loss_changes":[1.4026523E2,8.887966E1,2.9565582E0,0E0,0E0,0E0,0E0],"parents":[2147483647,0,0,1,1,2,2],"right_children":[2,4,6,-1,-1,-1,-1],"split_conditions":[2.0806885E0,3.744503E-2,4.825115E1,1.1868762E-2,-5.3512757E-3,-2.6059765E-2,1.8139687E-4],"split_indices":[17,27,40,0,0,0,0],"split_type":[0,0,0,0,0,0,0],"sum_hessian":[1.1119554E4,1.0132643E4,9.869112E2,4.8922188E3,5.2404243E3,9.5707306E2,2.9838135E1],"tree_param":{"num_deleted":"0","num_feature":"46","num_nodes":"7","size_leaf_vector":"1"}},{"base_weights":[-1.4860384E-2,-1.504115E-1,6.419187E-2,3.931222E-3,-1.9168502E-2,1.3838542E-2,-6.6913576E-3],"categories":[],"categories_nodes":[],"categories_segments":[],"categories_sizes":[],"default_left":[0,0,0,0,0,0,0],"id":37,"left_children":[1,3,5,-1,-1,-1,-1],"loss_changes":[1.3905977E2,4.4711823E1,9.027435E1,0E0,0E0,0E0,0E0],"parents":[2147483647,0,0,1,1,2,2],"right_children":[2,4,6,-1,-1,-1,-1],"split_conditions":[3.651172E2,7E0,1.01754226E-1,3.931222E-3,-1.9168502E-2,1.3838542E-2,-6.6913576E-3],"split_indices":[33,31,25,0,0,0,0],"split_type":[0,0,0,0,0,0,0],"sum_hessian":[1.1076256E4,3.747582E3,7.328674E3,6.7809125E2,3.0694907E3,4.6446846E3,2.683989E3],"tree_param":{"num_deleted":"0","num_feature":"46","num_nodes":"7","size_leaf_vector":"1"}},{"base_weights":[-8.770564E-3,-7.6632686E-2,1.3369443E-1,-1.2933475E-2,4.9720122E-3,2.087023E-2,-2.452864E-3],"categories":[],"categories_nodes":[],"categories_segments":[],"categories_sizes":[],"default_left":[0,0,0,0,0,0,0],"id":38,"left_children":[1,3,5,-1,-1,-1,-1],"loss_changes":[1.275968E2,6.541263E1,5.5922783E1,0E0,0E0,0E0,0E0],"parents":[2147483647,0,0,1,1,2,2],"right_children":[2,4,6,-1,-1,-1,-1],"split_conditions":[4.6979688E2,3.649587E1,5E0,-1.2933475E-2,4.9720122E-3,2.087023E-2,-2.452864E-3],"split_indices":[33,14,38,0,0,0,0],"split_type":[0,0,0,0,0,0,0],"sum_hessian":[1.1138159E4,7.8574272E3,3.2807314E3,5.52806E3,2.3293674E3,2.0092025E3,1.2715288E3],"tree_param":{"num_deleted":"0","num_feature":"46","num_nodes":"7","size_leaf_vector":"1"}},{"base_weights":[-8.131959E-3,3.19921E-2,-2.501533E-1,-1.2578222E-2,6.829668E-3,-2.5241358E-2,3.661204E-4],"categories":[],"categories_nodes":[],"categories_segments":[],"categories_sizes":[],"default_left":[0,0,0,0,0,0,0],"id":39,"left_children":[1,3,5,-1,-1,-1,-1],"loss_changes":[1.2527653E2,7.300522E1,1.9744492E0,0E0,0E0,0E0,0E0],"parents":[2147483647,0,0,1,1,2,2],"right_children":[2,4,6,-1,-1,-1,-1],"split_conditions":[2.1696587E0,2.560474E2,6.0469136E-2,-1.2578222E-2,6.829668E-3,-2.5241358E-2,3.661204E-4],"split_indices":[17,29,28,0,0,0,0],"split_type":[0,0,0,0,0,0,0],"sum_hessian":[1.1076518E4,1.0245721E4,8.307972E2,1.4555366E3,8.790184E3,8.289348E2,1.8623717E0],"tree_param":{"num_deleted":"0","num_feature":"46","num_nodes":"7","size_leaf_vector":"1"}},{"base_weights":[-3.2140338E-3,1.024718E-1,-7.6659806E-2,1.55095225E-2,-2.6003534E-3,-1.0933665E-2,1.1683433E-2],"categories":[],"categories_nodes":[],"categories_segments":[],"categories_sizes":[],"default_left":[0,0,0,0,0,0,0],"id":40,"left_children":[1,3,5,-1,-1,-1,-1],"loss_changes":[1.0156063E2,4.0389973E1,6.142434E1,0E0,0E0,0E0,0E0],"parents":[2147483647,0,0,1,1,2,2],"right_children":[2,4,6,-1,-1,-1,-1],"split_conditions":[7.10083E-1,7.6263785E-1,1.7E1,1.55095225E-2,-2.6003534E-3,-1.0933665E-2,1.1683433E-2],"split_indices":[17,21,31,0,0,0,0],"split_type":[0,0,0,0,0,0,0],"sum_hessian":[1.107202E4,4.3776025E3,6.6944165E3,2.9585742E3,1.4190283E3,6.0993145E3,5.951021E2],"tree_param":{"num_deleted":"0","num_feature":"46","num_nodes":"7","size_leaf_vector":"1"}},{"base_weights":[-4.964283E-3,2.9562332E-2,-2.368894E-1,1.3549886E-2,-3.7130069E-3,-2.4159288E-2,1.4892574E-4],"categories":[],"categories_nodes":[],"categories_segments":[],"categories_sizes":[],"default_left":[0,0,0,0,0,0,0],"id":41,"left_children":[1,3,5,-1,-1,-1,-1],"loss_changes":[1.0397731E2,8.578664E1,2.243637E0,0E0,0E0,0E0,0E0],"parents":[2147483647,0,0,1,1,2,2],"right_children":[2,4,6,-1,-1,-1,-1],"split_conditions":[2.267334E0,4.5746427E-2,4.46966E1,1.3549886E-2,-3.7130069E-3,-2.4159288E-2,1.4892574E-4],"split_indices":[17,25,40,0,0,0,0],"split_type":[0,0,0,0,0,0,0],"sum_hessian":[1.11103E4,1.0430108E4,6.8019165E2,3.630924E3,6.799184E3,6.538076E2,2.6384079E1],"tree_param":{"num_deleted":"0","num_feature":"46","num_nodes":"7","size_leaf_vector":"1"}},{"base_weights":[-6.6947667E-3,-6.860893E-2,1.2238646E-1,-1.2231565E-2,6.196035E-3,1.424478E-2,-4.730484E-3],"categories":[],"categories_nodes":[],"categories_segments":[],"categories_sizes":[],"default_left":[0,0,0,0,0,0,0],"id":42,"left_children":[1,3,5,-1,-1,-1,-1],"loss_changes":[1.0447349E2,6.904591E1,2.1227684E1,0E0,0E0,0E0,0E0],"parents":[2147483647,0,0,1,1,2,2],"right_children":[2,4,6,-1,-1,-1,-1],"split_conditions":[4.15E1,3.2E1,2.0806885E0,-1.2231565E-2,6.196035E-3,1.424478E-2,-4.730484E-3],"split_indices":[3,11,17,0,0,0,0],"split_type":[0,0,0,0,0,0,0],"sum_hessian":[1.1021671E4,7.76544E3,3.2562317E3,5.5470137E3,2.218426E3,3.0555447E3,2.0068692E2],"tree_param":{"num_deleted":"0","num_feature":"46","num_nodes":"7","size_leaf_vector":"1"}},{"base_weights":[-5.528203E-3,-6.357048E-2,1.3357088E-1,-1.0649718E-2,7.969094E-3,1.7323732E-2,-1.275326E-3],"categories":[],"categories_nodes":[],"categories_segments":[],"categories_sizes":[],"default_left":[0,0,0,0,0,0,0],"id":43,"left_children":[1,3,5,-1,-1,-1,-1],"loss_changes":[1.05503716E2,6.479254E1,2.4614563E1,0E0,0E0,0E0,0E0],"parents":[2147483647,0,0,1,1,2,2],"right_children":[2,4,6,-1,-1,-1,-1],"split_conditions":[1.3294808E0,4.65E1,1.6046875E1,-1.0649718E-2,7.969094E-3,1.7323732E-2,-1.275326E-3],"split_indices":[19,3,1,0,0,0,0],"split_type":[0,0,0,0,0,0,0],"sum_hessian":[1.1015982E4,8.1557803E3,2.860202E3,6.4728774E3,1.6829031E3,2.105501E3,7.5470074E2],"tree_param":{"num_deleted":"0","num_feature":"46","num_nodes":"7","size_leaf_vector":"1"}},{"base_weights":[-8.322799E-3,-1.0498191E-1,6.830592E-2,2.7189832E-3,-1.7189665E-2,1.247449E-2,-5.4735257E-3],"categories":[],"categories_nodes":[],"categories_segments":[],"categories_sizes":[],"default_left":[0,0,0,0,0,0,0],"id":44,"left_children":[1,3,5,-1,-1,-1,-1],"loss_changes":[9.632891E1,5.5237156E1,5.7661247E1,0E0,0E0,0E0,0E0],"parents":[2147483647,0,0,1,1,2,2],"right_children":[2,4,6,-1,-1,-1,-1],"split_conditions":[3E0,2.5124324E-3,6E0,2.7189832E-3,-1.7189665E-2,1.247449E-2,-5.4735257E-3],"split_indices":[39,28,37,0,0,0,0],"split_type":[0,0,0,0,0,0,0],"sum_hessian":[1.1037219E4,4.7170923E3,6.3201265E3,1.7849924E3,2.9320999E3,4.3232188E3,1.9969073E3],"tree_param":{"num_deleted":"0","num_feature":"46","num_nodes":"7","size_leaf_vector":"1"}},{"base_weights":[-6.816365E-3,-6.7444935E-2,1.0756608E-1,-1.1488046E-2,7.2597465E-3,-3.7075372E-3,1.3111864E-2],"categories":[],"categories_nodes":[],"categories_segments":[],"categories_sizes":[],"default_left":[0,0,0,0,0,0,0],"id":45,"left_children":[1,3,5,-1,-1,-1,-1],"loss_changes":[9.058694E1,6.459444E1,2.0355507E1,0E0,0E0,0E0,0E0],"parents":[2147483647,0,0,1,1,2,2],"right_children":[2,4,6,-1,-1,-1,-1],"split_conditions":[3.649587E1,4.65E1,2.560474E2,-1.1488046E-2,7.2597465E-3,-3.7075372E-3,1.3111864E-2],"split_indices":[14,3,29,0,0,0,0],"split_type":[0,0,0,0,0,0,0],"sum_hessian":[1.1016441E4,7.468244E3,3.5481973E3,5.7128477E3,1.7553964E3,4.1646146E2,3.1317358E3],"tree_param":{"num_deleted":"0","num_feature":"46","num_nodes":"7","size_leaf_vector":"1"}},{"base_weights":[-8.061357E-3,2.4600014E-2,-2.2570276E-1,6.422773E-3,-1.1058836E-2,-2.2953158E-2,3.9847853E-4],"categories":[],"categories_nodes":[],"categories_segments":[],"categories_sizes":[],"default_left":[0,0,0,0,0,0,0],"id":46,"left_children":[1,3,5,-1,-1,-1,-1],"loss_changes":[9.0780716E1,6.7783485E1,2.3769379E0,0E0,0E0,0E0,0E0],"parents":[2147483647,0,0,1,1,2,2],"right_children":[2,4,6,-1,-1,-1,-1],"split_conditions":[2.267334E0,1.6046875E1,1.21756096E2,6.422773E-3,-1.1058836E-2,-2.2953158E-2,3.9847853E-4],"split_indices":[17,1,14,0,0,0,0],"split_type":[0,0,0,0,0,0,0],"sum_hessian":[1.0989706E4,1.0326919E4,6.627873E2,8.391905E3,1.935014E3,6.525879E2,1.0199351E1],"tree_param":{"num_deleted":"0","num_feature":"46","num_nodes":"7","size_leaf_vector":"1"}},{"base_weights":[-1.6124046E-3,3.010295E-2,-2.1983175E-1,6.7374557E-3,-1.1275772E-2,-2.2334171E-2,1.7793232E-4],"categories":[],"categories_nodes":[],"categories_segments":[],"categories_sizes":[],"default_left":[0,0,0,0,0,0,0],"id":47,"left_children":[1,3,5,-1,-1,-1,-1],"loss_changes":[8.9825356E1,6.817348E1,1.6777725E0,0E0,0E0,0E0,0E0],"parents":[2147483647,0,0,1,1,2,2],"right_children":[2,4,6,-1,-1,-1,-1],"split_conditions":[2.267334E0,5E0,9.268965E1,6.7374557E-3,-1.1275772E-2,-2.2334171E-2,1.7793232E-4],"split_indices":[17,32,14,0,0,0,0],"split_type":[0,0,0,0,0,0,0],"sum_hessian":[1.1022675E4,1.0376619E4,6.4605524E2,8.648627E3,1.727992E3,6.2829486E2,1.7760399E1],"tree_param":{"num_deleted":"0","num_feature":"46","num_nodes":"7","size_leaf_vector":"1"}},{"base_weights":[-5.93886E-3,-9.4546296E-2,6.146247E-2,3.3980184E-3,-1.5235501E-2,-2.572577E-3,1.2508504E-2],"categories":[],"categories_nodes":[],"categories_segments":[],"categories_sizes":[],"default_left":[0,0,0,0,0,0,0],"id":48,"left_children":[1,3,5,-1,-1,-1,-1],"loss_changes":[7.726778E1,4.651116E1,4.4275608E1,0E0,0E0,0E0,0E0],"parents":[2147483647,0,0,1,1,2,2],"right_children":[2,4,6,-1,-1,-1,-1],"split_conditions":[1.5928384E1,7.5422037E-1,6.5243385E1,3.3980184E-3,-1.5235501E-2,-2.572577E-3,1.2508504E-2],"split_indices":[40,41,8,0,0,0,0],"split_type":[0,0,0,0,0,0,0],"sum_hessian":[1.0964773E4,4.5631753E3,6.401598E3,1.5435614E3,3.0196138E3,2.9519297E3,3.4496682E3],"tree_param":{"num_deleted":"0","num_feature":"46","num_nodes":"7","size_leaf_vector":"1"}},{"base_weights":[-8.723468E-3,-9.105423E-2,6.2357433E-2,2.5849012E-3,-1.5397175E-2,9.196059E-3,-9.993139E-3],"categories":[],"categories_nodes":[],"categories_segments":[],"categories_sizes":[],"default_left":[0,0,0,0,0,0,0],"id":49,"left_children":[1,3,5,-1,-1,-1,-1],"loss_changes":[7.566221E1,4.7724476E1,4.287422E1,0E0,0E0,0E0,0E0],"parents":[2147483647,0,0,1,1,2,2],"right_children":[2,4,6,-1,-1,-1,-1],"split_conditions":[6.7034546E1,2.9525883E-3,2.0609375E1,2.5849012E-3,-1.5397175E-2,9.196059E-3,-9.993139E-3],"split_indices":[8,28,9,0,0,0,0],"split_type":[0,0,0,0,0,0,0],"sum_hessian":[1.0958744E4,4.9473687E3,6.0113755E3,1.9371772E3,3.0101917E3,5.4505005E3,5.608752E2],"tree_param":{"num_deleted":"0","num_feature":"46","num_nodes":"7","size_leaf_vector":"1"}},{"base_weights":[-1.2257451E-3,-1.500235E-1,4.0093888E-2,-1.6613223E-2,1.0340469E-3,8.243321E-3,-1.4295389E-2],"categories":[],"categories_nodes":[],"categories_segments":[],"categories_sizes":[],"default_left":[0,0,0,0,0,0,0],"id":50,"left_children":[1,3,5,-1,-1,-1,-1],"loss_changes":[7.942279E1,8.966007E0,9.0322075E1,0E0,0E0,0E0,0E0],"parents":[2147483647,0,0,1,1,2,2],"right_children":[2,4,6,-1,-1,-1,-1],"split_conditions":[2.6034375E2,1.396878E0,1.7828125E1,-1.6613223E-2,1.0340469E-3,8.243321E-3,-1.4295389E-2],"split_indices":[29,19,1,0,0,0,0],"split_type":[0,0,0,0,0,0,0],"sum_hessian":[1.0939582E4,1.8058087E3,9.133772E3,1.6082852E3,1.9752357E2,7.864387E3,1.2693856E3],"tree_param":{"num_deleted":"0","num_feature":"46","num_nodes":"7","size_leaf_vector":"1"}},{"base_weights":[-7.931583E-3,4.6994638E-2,-1.23290665E-1,1.0730932E-2,-5.6414786E-3,-1.5144673E-2,3.926602E-3],"categories":[],"categories_nodes":[],"categories_segments":[],"categories_sizes":[],"default_left":[0,0,0,0,0,0,0],"id":51,"left_children":[1,3,5,-1,-1,-1,-1],"loss_changes":[8.166197E1,6.1161987E1,2.4886742E1,0E0,0E0,0E0,0E0],"parents":[2147483647,0,0,1,1,2,2],"right_children":[2,4,6,-1,-1,-1,-1],"split_conditions":[1.3345947E0,4E0,1.6E1,1.0730932E-2,-5.6414786E-3,-1.5144673E-2,3.926602E-3],"split_indices":[17,32,31,0,0,0,0],"split_type":[0,0,0,0,0,0,0],"sum_hessian":[1.0973662E4,7.8355327E3,3.1381294E3,4.9251636E3,2.9103687E3,2.7330835E3,4.0504593E2],"tree_param":{"num_deleted":"0","num_feature":"46","num_nodes":"7","size_leaf_vector":"1"}},{"base_weights":[-9.365214E-3,-4.163772E-2,1.7191862E-1,9.4244845E-4,-1.6766747E-2,-4.1608703E-3,2.1555724E-2],"categories":[],"categories_nodes":[],"categories_segments":[],"categories_sizes":[],"default_left":[0,0,0,0,0,0,0],"id":52,"left_children":[1,3,5,-1,-1,-1,-1],"loss_changes":[7.6997505E1,7.19727E1,2.7595226E1,0E0,0E0,0E0,0E0],"parents":[2147483647,0,0,1,1,2,2],"right_children":[2,4,6,-1,-1,-1,-1],"split_conditions":[1.7E1,6E0,9.407247E-1,9.4244845E-4,-1.6766747E-2,-4.1608703E-3,2.1555724E-2],"split_indices":[31,37,26,0,0,0,0],"split_type":[0,0,0,0,0,0,0],"sum_hessian":[1.0937341E4,9.938404E3,9.989367E2,7.731237E3,2.207167E3,1.7740349E2,8.215332E2],"tree_param":{"num_deleted":"0","num_feature":"46","num_nodes":"7","size_leaf_vector":"1"}},{"base_weights":[-9.800804E-3,-6.0165916E-2,9.5985785E-2,9.74927E-3,-8.980219E-3,1.5790327E-2,-5.7478785E-3],"categories":[],"categories_nodes":[],"categories_segments":[],"categories_sizes":[],"default_left":[0,0,0,0,0,0,0],"id":53,"left_children":[1,3,5,-1,-1,-1,-1],"loss_changes":[6.939419E1,4.9423744E1,4.933312E1,0E0,0E0,0E0,0E0],"parents":[2147483647,0,0,1,1,2,2],"right_children":[2,4,6,-1,-1,-1,-1],"split_conditions":[4.6979688E2,7E0,1.2829745E-1,9.74927E-3,-8.980219E-3,1.5790327E-2,-5.7478785E-3],"split_indices":[33,31,25,0,0,0,0],"split_type":[0,0,0,0,0,0,0],"sum_hessian":[1.0940628E4,7.703998E3,3.2366301E3,8.567313E2,6.8472666E3,2.2855637E3,9.5106635E2],"tree_param":{"num_deleted":"0","num_feature":"46","num_nodes":"7","size_leaf_vector":"1"}},{"base_weights":[2.7375616E-4,7.16488E-2,-7.889448E-2,1.0238865E-2,-1.2692749E-2,-1.4277994E-2,2.4383394E-3],"categories":[],"categories_nodes":[],"categories_segments":[],"categories_sizes":[],"default_left":[0,0,0,0,0,0,0],"id":54,"left_children":[1,3,5,-1,-1,-1,-1],"loss_changes":[7.299299E1,5.4450665E1,4.3901306E1,0E0,0E0,0E0,0E0],"parents":[2147483647,0,0,1,1,2,2],"right_children":[2,4,6,-1,-1,-1,-1],"split_conditions":[4E0,2.2442627E0,2.925E1,1.0238865E-2,-1.2692749E-2,-1.4277994E-2,2.4383394E-3],"split_indices":[13,17,11,0,0,0,0],"split_type":[0,0,0,0,0,0,0],"sum_hessian":[1.0917294E4,5.7911743E3,5.1261196E3,5.4343213E3,3.568533E2,2.930743E3,2.195377E3],"tree_param":{"num_deleted":"0","num_feature":"46","num_nodes":"7","size_leaf_vector":"1"}},{"base_weights":[-5.6001223E-3,-6.79158E-2,8.766376E-2,4.093434E-3,-1.4215526E-2,1.18524665E-2,-3.7192784E-3],"categories":[],"categories_nodes":[],"categories_segments":[],"categories_sizes":[],"default_left":[0,0,0,0,0,0,0],"id":55,"left_children":[1,3,5,-1,-1,-1,-1],"loss_changes":[7.483262E1,6.778404E1,2.4381413E1,0E0,0E0,0E0,0E0],"parents":[2147483647,0,0,1,1,2,2],"right_children":[2,4,6,-1,-1,-1,-1],"split_conditions":[2.1578405E1,9.4259775E-1,1.9672807E0,4.093434E-3,-1.4215526E-2,1.18524665E-2,-3.7192784E-3],"split_indices":[40,41,41,0,0,0,0],"split_type":[0,0,0,0,0,0,0],"sum_hessian":[1.0851551E4,6.668009E3,4.183542E3,2.8856614E3,3.7823477E3,3.3950884E3,7.884534E2],"tree_param":{"num_deleted":"0","num_feature":"46","num_nodes":"7","size_leaf_vector":"1"}},{"base_weights":[-1.5030794E-2,-6.967021E-2,8.294634E-2,1.3340168E-2,-9.269333E-3,1.1194295E-2,-2.9421626E-3],"categories":[],"categories_nodes":[],"categories_segments":[],"categories_sizes":[],"default_left":[0,0,0,0,0,0,0],"id":56,"left_children":[1,3,5,-1,-1,-1,-1],"loss_changes":[6.9618126E1,5.069915E1,1.8691734E1,0E0,0E0,0E0,0E0],"parents":[2147483647,0,0,1,1,2,2],"right_children":[2,4,6,-1,-1,-1,-1],"split_conditions":[3.4380165E1,2E0,2.65625E0,1.3340168E-2,-9.269333E-3,1.1194295E-2,-2.9421626E-3],"split_indices":[14,45,12,0,0,0,0],"split_type":[0,0,0,0,0,0,0],"sum_hessian":[1.0924961E4,7.19911E3,3.7258508E3,2.4488583E2,6.9542236E3,2.9646133E3,7.612375E2],"tree_param":{"num_deleted":"0","num_feature":"46","num_nodes":"7","size_leaf_vector":"1"}},{"base_weights":[-8.737009E-3,-8.780638E-2,5.8592003E-2,2.1879287E-3,-1.3615603E-2,1.0172636E-2,-4.774464E-3],"categories":[],"categories_nodes":[],"categories_segments":[],"categories_sizes":[],"default_left":[0,0,0,0,0,0,0],"id":57,"left_children":[1,3,5,-1,-1,-1,-1],"loss_changes":[6.846765E1,3.4112263E1,3.7074425E1,0E0,0E0,0E0,0E0],"parents":[2147483647,0,0,1,1,2,2],"right_children":[2,4,6,-1,-1,-1,-1],"split_conditions":[1.875E1,4.071261E-2,6E0,2.1879287E-3,-1.3615603E-2,1.0172636E-2,-4.774464E-3],"split_indices":[11,25,37,0,0,0,0],"split_type":[0,0,0,0,0,0,0],"sum_hessian":[1.0894612E4,4.8705874E3,6.024025E3,1.6576139E3,3.2129734E3,4.316455E3,1.70757E3],"tree_param":{"num_deleted":"0","num_feature":"46","num_nodes":"7","size_leaf_vector":"1"}},{"base_weights":[-3.425761E-3,2.4621619E-2,-1.9576399E-1,-8.452852E-3,6.6572255E-3,-2.0086048E-2,3.1834788E-4],"categories":[],"categories_nodes":[],"categories_segments":[],"categories_sizes":[],"default_left":[0,0,0,0,0,0,0],"id":58,"left_children":[1,3,5,-1,-1,-1,-1],"loss_changes":[6.889822E1,5.7162247E1,2.2854538E0,0E0,0E0,0E0,0E0],"parents":[2147483647,0,0,1,1,2,2],"right_children":[2,4,6,-1,-1,-1,-1],"split_conditions":[2.267334E0,1.2910511E1,4.46966E1,-8.452852E-3,6.6572255E-3,-2.0086048E-2,3.1834788E-4],"split_indices":[17,40,40,0,0,0,0],"split_type":[0,0,0,0,0,0,0],"sum_hessian":[1.0878246E4,1.025484E4,6.234059E2,2.5653027E3,7.6895376E3,5.9845935E2,2.4946533E1],"tree_param":{"num_deleted":"0","num_feature":"46","num_nodes":"7","size_leaf_vector":"1"}},{"base_weights":[-3.6522774E-3,-5.890884E-2,8.434435E-2,6.234034E-3,-1.1194018E-2,1.1389222E-2,-4.1860677E-3],"categories":[],"categories_nodes":[],"categories_segments":[],"categories_sizes":[],"default_left":[0,0,0,0,0,0,0],"id":59,"left_children":[1,3,5,-1,-1,-1,-1],"loss_changes":[6.2709076E1,5.766754E1,2.3382069E1,0E0,0E0,0E0,0E0],"parents":[2147483647,0,0,1,1,2,2],"right_children":[2,4,6,-1,-1,-1,-1],"split_conditions":[3.65E1,1.9343736E-2,1.76875E1,6.234034E-3,-1.1194018E-2,1.1389222E-2,-4.1860677E-3],"split_indices":[3,27,1,0,0,0,0],"split_type":[0,0,0,0,0,0,0],"sum_hessian":[1.0874909E4,6.883219E3,3.9916902E3,2.041062E3,4.842157E3,3.3134802E3,6.782099E2],"tree_param":{"num_deleted":"0","num_feature":"46","num_nodes":"7","size_leaf_vector":"1"}},{"base_weights":[2.7791606E-3,3.0026982E-2,-1.8842503E-1,8.171474E-3,-5.8225333E-3,-1.9249327E-2,4.638615E-4],"categories":[],"categories_nodes":[],"categories_segments":[],"categories_sizes":[],"default_left":[0,0,0,0,0,0,0],"id":60,"left_children":[1,3,5,-1,-1,-1,-1],"loss_changes":[6.759557E1,5.615827E1,2.1655426E0,0E0,0E0,0E0,0E0],"parents":[2147483647,0,0,1,1,2,2],"right_children":[2,4,6,-1,-1,-1,-1],"split_conditions":[2.267334E0,4E0,1.21756096E2,8.171474E-3,-5.8225333E-3,-1.9249327E-2,4.638615E-4],"split_indices":[17,32,14,0,0,0,0],"split_type":[0,0,0,0,0,0,0],"sum_hessian":[1.0888475E4,1.0268155E4,6.203192E2,6.522264E3,3.745891E3,6.1041095E2,9.908242E0],"tree_param":{"num_deleted":"0","num_feature":"46","num_nodes":"7","size_leaf_vector":"1"}},{"base_weights":[-1.3805198E-3,-5.2709136E-2,8.617405E-2,-8.8030975E-3,7.912483E-3,1.21851005E-2,-2.1469097E-3],"categories":[],"categories_nodes":[],"categories_segments":[],"categories_sizes":[],"default_left":[0,0,0,0,0,0,0],"id":61,"left_children":[1,3,5,-1,-1,-1,-1],"loss_changes":[5.792857E1,4.4727993E1,2.0934265E1,0E0,0E0,0E0,0E0],"parents":[2147483647,0,0,1,1,2,2],"right_children":[2,4,6,-1,-1,-1,-1],"split_conditions":[3.4380165E1,3.2740093E1,6E0,-8.8030975E-3,7.912483E-3,1.21851005E-2,-2.1469097E-3],"split_indices":[14,40,37,0,0,0,0],"split_type":[0,0,0,0,0,0,0],"sum_hessian":[1.0879342E4,7.1094385E3,3.7699028E3,5.8691855E3,1.2402527E3,2.7323198E3,1.0375831E3],"tree_param":{"num_deleted":"0","num_feature":"46","num_nodes":"7","size_leaf_vector":"1"}},{"base_weights":[-6.757001E-3,-1.4585036E-1,2.9436123E-2,2.6616715E-3,-1.6948357E-2,1.4196773E-2,-3.376559E-3],"categories":[],"categories_nodes":[],"categories_segments":[],"categories_sizes":[],"default_left":[0,0,0,0,0,0,0],"id":62,"left_children":[1,3,5,-1,-1,-1,-1],"loss_changes":[6.411181E1,1.5195801E1,7.7771614E1,0E0,0E0,0E0,0E0],"parents":[2147483647,0,0,1,1,2,2],"right_children":[2,4,6,-1,-1,-1,-1],"split_conditions":[2.560474E2,6E0,4.1200444E-2,2.6616715E-3,-1.6948357E-2,1.4196773E-2,-3.376559E-3],"split_indices":[29,31,25,0,0,0,0],"split_type":[0,0,0,0,0,0,0],"sum_hessian":[1.0882376E4,1.6214025E3,9.260974E3,1.8019064E2,1.4412118E3,2.882455E3,6.3785186E3],"tree_param":{"num_deleted":"0","num_feature":"46","num_nodes":"7","size_leaf_vector":"1"}},{"base_weights":[1.2148017E-3,-4.575444E-2,1.04692735E-1,-9.704134E-3,4.320552E-3,1.4218861E-2,-4.3598996E-3],"categories":[],"categories_nodes":[],"categories_segments":[],"categories_sizes":[],"default_left":[0,0,0,0,0,0,0],"id":63,"left_children":[1,3,5,-1,-1,-1,-1],"loss_changes":[6.2556072E1,4.466475E1,2.8522259E1,0E0,0E0,0E0,0E0],"parents":[2147483647,0,0,1,1,2,2],"right_children":[2,4,6,-1,-1,-1,-1],"split_conditions":[1.3147141E0,1.2968365E2,5E0,-9.704134E-3,4.320552E-3,1.4218861E-2,-4.3598996E-3],"split_indices":[19,16,32,0,0,0,0],"split_type":[0,0,0,0,0,0,0],"sum_hessian":[1.0885306E4,7.870619E3,3.0146868E3,4.9347886E3,2.9358306E3,2.439109E3,5.7557776E2],"tree_param":{"num_deleted":"0","num_feature":"46","num_nodes":"7","size_leaf_vector":"1"}},{"base_weights":[-3.3121245E-4,6.282164E-2,-7.054447E-2,-9.260199E-3,9.361639E-3,-9.6864E-3,6.1092298E-3],"categories":[],"categories_nodes":[],"categories_segments":[],"categories_sizes":[],"default_left":[0,0,0,0,0,0,0],"id":64,"left_children":[1,3,5,-1,-1,-1,-1],"loss_changes":[5.70156E1,4.1082623E1,2.7005186E1,0E0,0E0,0E0,0E0],"parents":[2147483647,0,0,1,1,2,2],"right_children":[2,4,6,-1,-1,-1,-1],"split_conditions":[4E0,2.929297E2,6E1,-9.260199E-3,9.361639E-3,-9.6864E-3,6.1092298E-3],"split_indices":[13,33,3,0,0,0,0],"split_type":[0,0,0,0,0,0,0],"sum_hessian":[1.0858792E4,5.7722515E3,5.0865405E3,6.226439E2,5.149608E3,4.4591353E3,6.274054E2],"tree_param":{"num_deleted":"0","num_feature":"46","num_nodes":"7","size_leaf_vector":"1"}},{"base_weights":[-6.7681335E-3,-4.8875444E-2,9.523197E-2,1.1914012E-2,-6.7446823E-3,1.2534082E-2,-5.0352863E-3],"categories":[],"categories_nodes":[],"categories_segments":[],"categories_sizes":[],"default_left":[0,0,0,0,0,0,0],"id":65,"left_children":[1,3,5,-1,-1,-1,-1],"loss_changes":[5.55278E1,3.625775E1,2.2968903E1,0E0,0E0,0E0,0E0],"parents":[2147483647,0,0,1,1,2,2],"right_children":[2,4,6,-1,-1,-1,-1],"split_conditions":[1.3294808E0,2E0,1.9505498E0,1.1914012E-2,-6.7446823E-3,1.2534082E-2,-5.0352863E-3],"split_indices":[19,45,41,0,0,0,0],"split_type":[0,0,0,0,0,0,0],"sum_hessian":[1.084491E4,8.0447397E3,2.8001702E3,2.617181E2,7.7830215E3,2.435525E3,3.6464517E2],"tree_param":{"num_deleted":"0","num_feature":"46","num_nodes":"7","size_leaf_vector":"1"}},{"base_weights":[-7.574049E-3,-3.8173676E-2,1.6195655E-1,1.02861095E-2,-7.384232E-3,2.1792417E-2,-2.3962185E-3],"categories":[],"categories_nodes":[],"categories_segments":[],"categories_sizes":[],"default_left":[0,0,0,0,0,0,0],"id":66,"left_children":[1,3,5,-1,-1,-1,-1],"loss_changes":[6.770945E1,6.2208145E1,2.60764E1,0E0,0E0,0E0,0E0],"parents":[2147483647,0,0,1,1,2,2],"right_children":[2,4,6,-1,-1,-1,-1],"split_conditions":[1.7E1,8E0,5.2319676E-2,1.02861095E-2,-7.384232E-3,2.1792417E-2,-2.3962185E-3],"split_indices":[31,31,25,0,0,0,0],"split_type":[0,0,0,0,0,0,0],"sum_hessian":[1.0860454E4,9.856264E3,1.00419073E3,1.6092905E3,8.246973E3,6.395252E2,3.6466556E2],"tree_param":{"num_deleted":"0","num_feature":"46","num_nodes":"7","size_leaf_vector":"1"}},{"base_weights":[-1.0770706E-3,-8.0969594E-2,5.619638E-2,-1.1327471E-2,6.109412E-3,9.027367E-3,-7.4777356E-3],"categories":[],"categories_nodes":[],"categories_segments":[],"categories_sizes":[],"default_left":[0,0,0,0,0,0,0],"id":67,"left_children":[1,3,5,-1,-1,-1,-1],"loss_changes":[5.8725307E1,3.1488956E1,4.016372E1,0E0,0E0,0E0,0E0],"parents":[2147483647,0,0,1,1,2,2],"right_children":[2,4,6,-1,-1,-1,-1],"split_conditions":[1.5671098E1,4.6E1,1.9322445E0,-1.1327471E-2,6.109412E-3,9.027367E-3,-7.4777356E-3],"split_indices":[40,11,41,0,0,0,0],"split_type":[0,0,0,0,0,0,0],"sum_hessian":[1.0839689E4,4.3533413E3,6.4863486E3,3.7119067E3,6.414343E2,5.3937344E3,1.0926144E3],"tree_param":{"num_deleted":"0","num_feature":"46","num_nodes":"7","size_leaf_vector":"1"}},{"base_weights":[4.2888657E-3,6.8361156E-2,-6.733924E-2,9.538704E-3,-1.125759E-2,-1.0405905E-2,6.294912E-3],"categories":[],"categories_nodes":[],"categories_segments":[],"categories_sizes":[],"default_left":[0,0,0,0,0,0,0],"id":68,"left_children":[1,3,5,-1,-1,-1,-1],"loss_changes":[5.8869614E1,4.3684937E1,3.567034E1,0E0,0E0,0E0,0E0],"parents":[2147483647,0,0,1,1,2,2],"right_children":[2,4,6,-1,-1,-1,-1],"split_conditions":[4E0,2.2442627E0,4.6E1,9.538704E-3,-1.125759E-2,-1.0405905E-2,6.294912E-3],"split_indices":[13,17,11,0,0,0,0],"split_type":[0,0,0,0,0,0,0],"sum_hessian":[1.0824312E4,5.73758E3,5.0867314E3,5.4033228E3,3.3425735E2,4.1253745E3,9.6135706E2],"tree_param":{"num_deleted":"0","num_feature":"46","num_nodes":"7","size_leaf_vector":"1"}},{"base_weights":[-1.8781925E-3,-4.5613248E-2,1.0082401E-1,7.3951646E-4,-1.37293935E-2,1.526537E-2,-5.6125624E-3],"categories":[],"categories_nodes":[],"categories_segments":[],"categories_sizes":[],"default_left":[0,0,0,0,0,0,0],"id":69,"left_children":[1,3,5,-1,-1,-1,-1],"loss_changes":[5.773287E1,4.468074E1,3.984114E1,0E0,0E0,0E0,0E0],"parents":[2147483647,0,0,1,1,2,2],"right_children":[2,4,6,-1,-1,-1,-1],"split_conditions":[4.8160156E2,1.30234375E1,8.185005E-2,7.3951646E-4,-1.37293935E-2,1.526537E-2,-5.6125624E-3],"split_indices":[33,1,27,0,0,0,0],"split_type":[0,0,0,0,0,0,0],"sum_hessian":[1.08294E4,7.984937E3,2.8444636E3,5.6420977E3,2.3428394E3,2.1588992E3,6.855644E2],"tree_param":{"num_deleted":"0","num_feature":"46","num_nodes":"7","size_leaf_vector":"1"}},{"base_weights":[1.2806796E-3,-3.253418E-2,1.1834801E-1,2.926298E-3,-1.0962453E-2,1.2682681E-2,-1.7210728E-3],"categories":[],"categories_nodes":[],"categories_segments":[],"categories_sizes":[],"default_left":[0,0,0,0,0,0,0],"id":70,"left_children":[1,3,5,-1,-1,-1,-1],"loss_changes":[5.0625984E1,5.0620644E1,5.4743614E0,0E0,0E0,0E0,0E0],"parents":[2147483647,0,0,1,1,2,2],"right_children":[2,4,6,-1,-1,-1,-1],"split_conditions":[3.2740093E1,1.2420365E0,2.4332275E0,2.926298E-3,-1.0962453E-2,1.2682681E-2,-1.7210728E-3],"split_indices":[40,41,17,0,0,0,0],"split_type":[0,0,0,0,0,0,0],"sum_hessian":[1.0816159E4,8.952363E3,1.8637968E3,5.313424E3,3.6389392E3,1.8147064E3,4.9090256E1],"tree_param":{"num_deleted":"0","num_feature":"46","num_nodes":"7","size_leaf_vector":"1"}},{"base_weights":[2.9291718E-3,2.618147E-2,-1.5556276E-1,6.115004E-3,-9.417045E-3,-1.5990106E-2,1.8204055E-4],"categories":[],"categories_nodes":[],"categories_segments":[],"categories_sizes":[],"default_left":[0,0,0,0,0,0,0],"id":71,"left_children":[1,3,5,-1,-1,-1,-1],"loss_changes":[4.7635193E1,5.274338E1,1.42202E0,0E0,0E0,0E0,0E0],"parents":[2147483647,0,0,1,1,2,2],"right_children":[2,4,6,-1,-1,-1,-1],"split_conditions":[2.222168E0,1.6046875E1,6.5E1,6.115004E-3,-9.417045E-3,-1.5990106E-2,1.8204055E-4],"split_indices":[17,1,3,0,0,0,0],"split_type":[0,0,0,0,0,0,0],"sum_hessian":[1.0820561E4,1.0164185E4,6.563755E2,8.256999E3,1.9071862E3,6.231984E2,3.317706E1],"tree_param":{"num_deleted":"0","num_feature":"46","num_nodes":"7","size_leaf_vector":"1"}},{"base_weights":[3.7836455E-4,2.453297E-2,-1.6957538E-1,5.654103E-3,-9.730121E-3,-1.729847E-2,3.8134327E-4],"categories":[],"categories_nodes":[],"categories_segments":[],"categories_sizes":[],"default_left":[0,0,0,0,0,0,0],"id":72,"left_children":[1,3,5,-1,-1,-1,-1],"loss_changes":[5.269314E1,4.9274807E1,1.604042E0,0E0,0E0,0E0,0E0],"parents":[2147483647,0,0,1,1,2,2],"right_children":[2,4,6,-1,-1,-1,-1],"split_conditions":[2.267334E0,5E0,1.21756096E2,5.654103E-3,-9.730121E-3,-1.729847E-2,3.8134327E-4],"split_indices":[17,32,14,0,0,0,0],"split_type":[0,0,0,0,0,0,0],"sum_hessian":[1.0822411E4,1.0224856E4,5.9755444E2,8.521913E3,1.7029436E3,5.8831714E2,9.237327E0],"tree_param":{"num_deleted":"0","num_feature":"46","num_nodes":"7","size_leaf_vector":"1"}},{"base_weights":[-8.266801E-3,1.7837852E-1,-3.0720474E-2,1.8253924E-2,-3.2334923E-4,-5.541995E-3,1.1854085E-2],"categories":[],"categories_nodes":[],"categories_segments":[],"categories_sizes":[],"default_left":[0,0,0,0,0,0,0],"id":73,"left_children":[1,3,5,-1,-1,-1,-1],"loss_changes":[5.492822E1,1.6586571E0,4.854278E1,0E0,0E0,0E0,0E0],"parents":[2147483647,0,0,1,1,2,2],"right_children":[2,4,6,-1,-1,-1,-1],"split_conditions":[2E0,2.509375E1,1.7E1,1.8253924E-2,-3.2334923E-4,-5.541995E-3,1.1854085E-2],"split_indices":[45,1,31,0,0,0,0],"split_type":[0,0,0,0,0,0,0],"sum_hessian":[1.0799056E4,4.13936E2,1.038512E4,3.9967404E2,1.4261963E1,9.450049E3,9.350707E2],"tree_param":{"num_deleted":"0","num_feature":"46","num_nodes":"7","size_leaf_vector":"1"}},{"base_weights":[-5.290698E-4,-1.199467E-1,3.0651283E-2,-1.3539423E-2,2.3310464E-3,8.042984E-3,-7.797453E-3],"categories":[],"categories_nodes":[],"categories_segments":[],"categories_sizes":[],"default_left":[0,0,0,0,0,0,0],"id":74,"left_children":[1,3,5,-1,-1,-1,-1],"loss_changes":[4.7580326E1,9.008949E0,6.1134705E1,0E0,0E0,0E0,0E0],"parents":[2147483647,0,0,1,1,2,2],"right_children":[2,4,6,-1,-1,-1,-1],"split_conditions":[2.5716455E2,3.9780233E-2,6E0,-1.3539423E-2,2.3310464E-3,8.042984E-3,-7.797453E-3],"split_indices":[29,28,37,0,0,0,0],"split_type":[0,0,0,0,0,0,0],"sum_hessian":[1.0791055E4,1.6447931E3,9.146262E3,1.5342416E3,1.1055157E2,6.45005E3,2.6962117E3],"tree_param":{"num_deleted":"0","num_feature":"46","num_nodes":"7","size_leaf_vector":"1"}},{"base_weights":[-1.5484219E-3,-6.9127254E-2,5.177909E-2,2.7829728E-3,-1.1365164E-2,1.0228619E-2,-6.6242553E-3],"categories":[],"categories_nodes":[],"categories_segments":[],"categories_sizes":[],"default_left":[0,0,0,0,0,0,0],"id":75,"left_children":[1,3,5,-1,-1,-1,-1],"loss_changes":[4.6125534E1,2.7490713E1,4.951837E1,0E0,0E0,0E0,0E0],"parents":[2147483647,0,0,1,1,2,2],"right_children":[2,4,6,-1,-1,-1,-1],"split_conditions":[1.8E1,4.1200444E-2,2.65625E0,2.7829728E-3,-1.1365164E-2,1.0228619E-2,-6.6242553E-3],"split_indices":[11,25,12,0,0,0,0],"split_type":[0,0,0,0,0,0,0],"sum_hessian":[1.0805888E4,4.6354175E3,6.17047E3,1.5767715E3,3.0586458E3,4.414585E3,1.7558849E3],"tree_param":{"num_deleted":"0","num_feature":"46","num_nodes":"7","size_leaf_vector":"1"}},{"base_weights":[-5.390112E-3,-5.2915048E-2,6.6137284E-2,4.2994767E-3,-1.0462427E-2,8.342169E-3,-3.8967994E-3],"categories":[],"categories_nodes":[],"categories_segments":[],"categories_sizes":[],"default_left":[0,0,0,0,0,0,0],"id":76,"left_children":[1,3,5,-1,-1,-1,-1],"loss_changes":[4.3617123E1,4.241795E1,1.2616825E1,0E0,0E0,0E0,0E0],"parents":[2147483647,0,0,1,1,2,2],"right_children":[2,4,6,-1,-1,-1,-1],"split_conditions":[2.1578405E1,8.278833E-1,2.3554332E0,4.2994767E-3,-1.0462427E-2,8.342169E-3,-3.8967994E-3],"split_indices":[40,41,41,0,0,0,0],"split_type":[0,0,0,0,0,0,0],"sum_hessian":[1.0801562E4,6.6459844E3,4.1555776E3,2.3870435E3,4.258941E3,3.745877E3,4.0970065E2],"tree_param":{"num_deleted":"0","num_feature":"46","num_nodes":"7","size_leaf_vector":"1"}},{"base_weights":[-1.3336207E-3,1.7424242E-1,-2.2878198E-2,-4.5227335E-4,1.7824288E-2,1.6175344E-3,-1.083719E-2],"categories":[],"categories_nodes":[],"categories_segments":[],"categories_sizes":[],"default_left":[0,0,0,0,0,0,0],"id":77,"left_children":[1,3,5,-1,-1,-1,-1],"loss_changes":[4.8574047E1,1.8104668E0,3.975844E1,0E0,0E0,0E0,0E0],"parents":[2147483647,0,0,1,1,2,2],"right_children":[2,4,6,-1,-1,-1,-1],"split_conditions":[2E0,2.2985938E2,6E0,-4.5227335E-4,1.7824288E-2,1.6175344E-3,-1.083719E-2],"split_indices":[45,33,37,0,0,0,0],"split_type":[0,0,0,0,0,0,0],"sum_hessian":[1.0787232E4,4.043642E2,1.0382868E4,5.9932723E0,3.9837094E2,7.683737E3,2.6991318E3],"tree_param":{"num_deleted":"0","num_feature":"46","num_nodes":"7","size_leaf_vector":"1"}},{"base_weights":[-4.76299E-3,-2.9099816E-2,1.3008422E-1,9.836868E-3,-6.217549E-3,-3.872256E-3,1.909663E-2],"categories":[],"categories_nodes":[],"categories_segments":[],"categories_sizes":[],"default_left":[0,0,0,0,0,0,0],"id":78,"left_children":[1,3,5,-1,-1,-1,-1],"loss_changes":[4.242982E1,5.1618137E1,2.77757E1,0E0,0E0,0E0,0E0],"parents":[2147483647,0,0,1,1,2,2],"right_children":[2,4,6,-1,-1,-1,-1],"split_conditions":[1.7E1,8E0,9.6506023E-1,9.836868E-3,-6.217549E-3,-3.872256E-3,1.909663E-2],"split_indices":[31,31,26,0,0,0,0],"split_type":[0,0,0,0,0,0,0],"sum_hessian":[1.0775532E4,9.792426E3,9.831065E2,1.6107598E3,8.181666E3,3.5706168E2,6.2604486E2],"tree_param":{"num_deleted":"0","num_feature":"46","num_nodes":"7","size_leaf_vector":"1"}},{"base_weights":[1.7682185E-3,-3.717937E-2,8.846315E-2,4.4067963E-3,-8.336904E-3,1.149635E-2,-2.893209E-3],"categories":[],"categories_nodes":[],"categories_segments":[],"categories_sizes":[],"default_left":[0,0,0,0,0,0,0],"id":79,"left_children":[1,3,5,-1,-1,-1,-1],"loss_changes":[4.311429E1,3.6858063E1,1.5621178E1,0E0,0E0,0E0,0E0],"parents":[2147483647,0,0,1,1,2,2],"right_children":[2,4,6,-1,-1,-1,-1],"split_conditions":[4.1739132E1,3E0,1.6046875E1,4.4067963E-3,-8.336904E-3,1.149635E-2,-2.893209E-3],"split_indices":[14,32,1,0,0,0,0],"split_type":[0,0,0,0,0,0,0],"sum_hessian":[1.0794636E4,7.8425347E3,2.9521016E3,2.8591838E3,4.9833506E3,2.425331E3,5.267707E2],"tree_param":{"num_deleted":"0","num_feature":"46","num_nodes":"7","size_leaf_vector":"1"}},{"base_weights":[9.071459E-4,8.434902E-2,-4.3020137E-2,-3.7687707E-3,1.8760337E-2,9.337093E-3,-1.0175909E-2],"categories":[],"categories_nodes":[],"categories_segments":[],"categories_sizes":[],"default_left":[0,0,0,0,0,0,0],"id":80,"left_children":[1,3,5,-1,-1,-1,-1],"loss_changes":[4.6607037E1,6.2282936E1,7.634765E1,0E0,0E0,0E0,0E0],"parents":[2147483647,0,0,1,1,2,2],"right_children":[2,4,6,-1,-1,-1,-1],"split_conditions":[4.071261E-2,1.3E1,9E0,-3.7687707E-3,1.8760337E-2,9.337093E-3,-1.0175909E-2],"split_indices":[25,31,31,0,0,0,0],"split_type":[0,0,0,0,0,0,0],"sum_hessian":[1.0725493E4,3.3816667E3,7.3438267E3,1.8409003E3,1.5407664E3,2.0331919E3,5.310635E3],"tree_param":{"num_deleted":"0","num_feature":"46","num_nodes":"7","size_leaf_vector":"1"}},{"base_weights":[-1.2105347E-3,-5.3444054E-2,6.727752E-2,-8.86375E-3,4.7049792E-3,1.0674177E-2,-6.354067E-3],"categories":[],"categories_nodes":[],"categories_segments":[],"categories_sizes":[],"default_left":[0,0,0,0,0,0,0],"id":81,"left_children":[1,3,5,-1,-1,-1,-1],"loss_changes":[4.569694E1,2.9755026E1,3.535662E1,0E0,0E0,0E0,0E0],"parents":[2147483647,0,0,1,1,2,2],"right_children":[2,4,6,-1,-1,-1,-1],"split_conditions":[2.4E1,1.3675221E2,3.0625E0,-8.86375E-3,4.7049792E-3,1.0674177E-2,-6.354067E-3],"split_indices":[11,16,12,0,0,0,0],"split_type":[0,0,0,0,0,0,0],"sum_hessian":[1.0768795E4,6.233996E3,4.534799E3,4.704454E3,1.5295422E3,3.625216E3,9.0958295E2],"tree_param":{"num_deleted":"0","num_feature":"46","num_nodes":"7","size_leaf_vector":"1"}},{"base_weights":[2.653103E-3,-3.6637284E-2,9.3637094E-2,1.2243838E-2,-5.5909795E-3,1.7047873E-2,-4.4726613E-3],"categories":[],"categories_nodes":[],"categories_segments":[],"categories_sizes":[],"default_left":[0,0,0,0,0,0,0],"id":82,"left_children":[1,3,5,-1,-1,-1,-1],"loss_changes":[4.538192E1,3.4176186E1,4.824554E1,0E0,0E0,0E0,0E0],"parents":[2147483647,0,0,1,1,2,2],"right_children":[2,4,6,-1,-1,-1,-1],"split_conditions":[4.8160156E2,2E0,5E0,1.2243838E-2,-5.5909795E-3,1.7047873E-2,-4.4726613E-3],"split_indices":[33,45,38,0,0,0,0],"split_type":[0,0,0,0,0,0,0],"sum_hessian":[1.0735301E4,7.9147354E3,2.8205654E3,2.7682336E2,7.6379116E3,1.6642195E3,1.1563461E3],"tree_param":{"num_deleted":"0","num_feature":"46","num_nodes":"7","size_leaf_vector":"1"}},{"base_weights":[4.3155737E-3,2.6257517E-2,-1.5138163E-1,1.0571337E-2,-2.10312E-3,-1.56168165E-2,2.2060478E-4],"categories":[],"categories_nodes":[],"categories_segments":[],"categories_sizes":[],"default_left":[0,0,0,0,0,0,0],"id":83,"left_children":[1,3,5,-1,-1,-1,-1],"loss_changes":[4.4181694E1,4.4183933E1,1.5218811E0,0E0,0E0,0E0,0E0],"parents":[2147483647,0,0,1,1,2,2],"right_children":[2,4,6,-1,-1,-1,-1],"split_conditions":[2.2442627E0,3.3005436E-3,4.1768013E1,1.0571337E-2,-2.10312E-3,-1.56168165E-2,2.2060478E-4],"split_indices":[17,28,40,0,0,0,0],"split_type":[0,0,0,0,0,0,0],"sum_hessian":[1.0769105E4,1.0167574E4,6.0153076E2,3.332584E3,6.8349907E3,5.6705725E2,3.4473534E1],"tree_param":{"num_deleted":"0","num_feature":"46","num_nodes":"7","size_leaf_vector":"1"}},{"base_weights":[4.811394E-3,-5.4809358E-2,6.0450535E-2,4.9999817E-3,-1.1062178E-2,-5.2361167E-3,8.530086E-3],"categories":[],"categories_nodes":[],"categories_segments":[],"categories_sizes":[],"default_left":[0,0,0,0,0,0,0],"id":84,"left_children":[1,3,5,-1,-1,-1,-1],"loss_changes":[4.231005E1,4.179487E1,2.284689E1,0E0,0E0,0E0,0E0],"parents":[2147483647,0,0,1,1,2,2],"right_children":[2,4,6,-1,-1,-1,-1],"split_conditions":[1.2074392E2,2.2201283E-2,4.6103802E-1,4.9999817E-3,-1.1062178E-2,-5.2361167E-3,8.530086E-3],"split_indices":[16,27,19,0,0,0,0],"split_type":[0,0,0,0,0,0,0],"sum_hessian":[1.075577E4,5.1993066E3,5.556463E3,1.842831E3,3.3564758E3,8.031921E2,4.7532705E3],"tree_param":{"num_deleted":"0","num_feature":"46","num_nodes":"7","size_leaf_vector":"1"}},{"base_weights":[-2.0140517E-3,1.6409847E-1,-2.2255352E-2,-3.3715024E-4,1.672265E-2,-6.243613E-3,6.296924E-3],"categories":[],"categories_nodes":[],"categories_segments":[],"categories_sizes":[],"default_left":[0,0,0,0,0,0,0],"id":85,"left_children":[1,3,5,-1,-1,-1,-1],"loss_changes":[4.3174316E1,1.2951851E0,4.2826637E1,0E0,0E0,0E0,0E0],"parents":[2147483647,0,0,1,1,2,2],"right_children":[2,4,6,-1,-1,-1,-1],"split_conditions":[2E0,2.2985938E2,9.5931625E1,-3.3715024E-4,1.672265E-2,-6.243613E-3,6.296924E-3],"split_indices":[45,33,8,0,0,0,0],"split_type":[0,0,0,0,0,0,0],"sum_hessian":[1.075441E4,3.961607E2,1.035825E4,5.8366675E0,3.9032404E2,7.221111E3,3.137139E3],"tree_param":{"num_deleted":"0","num_feature":"46","num_nodes":"7","size_leaf_vector":"1"}},{"base_weights":[3.5303563E-3,-1.0949515E-1,2.9009437E-2,3.7402138E-3,-1.4018267E-2,7.3894667E-3,-6.949221E-3],"categories":[],"categories_nodes":[],"categories_segments":[],"categories_sizes":[],"default_left":[0,0,0,0,0,0,0],"id":86,"left_children":[1,3,5,-1,-1,-1,-1],"loss_changes":[3.7110355E1,1.595899E1,5.1144505E1,0E0,0E0,0E0,0E0],"parents":[2147483647,0,0,1,1,2,2],"right_children":[2,4,6,-1,-1,-1,-1],"split_conditions":[3.021797E2,6E0,6E0,3.7402138E-3,-1.4018267E-2,7.3894667E-3,-6.949221E-3],"split_indices":[33,31,37,0,0,0,0],"split_type":[0,0,0,0,0,0,0],"sum_hessian":[1.0783501E4,1.3771215E3,9.40638E3,2.0016254E2,1.1769589E3,6.6334585E3,2.7729214E3],"tree_param":{"num_deleted":"0","num_feature":"46","num_nodes":"7","size_leaf_vector":"1"}},{"base_weights":[3.5189006E-3,-9.381579E-2,3.49022E-2,-1.3444792E-2,2.5082447E-3,6.1789015E-3,-8.880185E-3],"categories":[],"categories_nodes":[],"categories_segments":[],"categories_sizes":[],"default_left":[0,0,0,0,0,0,0],"id":87,"left_children":[1,3,5,-1,-1,-1,-1],"loss_changes":[3.9074345E1,1.8486752E1,3.7387093E1,0E0,0E0,0E0,0E0],"parents":[2147483647,0,0,1,1,2,2],"right_children":[2,4,6,-1,-1,-1,-1],"split_conditions":[1.2056271E1,3.175E1,1.76875E1,-1.3444792E-2,2.5082447E-3,6.1789015E-3,-8.880185E-3],"split_indices":[40,11,1,0,0,0,0],"split_type":[0,0,0,0,0,0,0],"sum_hessian":[1.0719697E4,2.1285835E3,8.591113E3,1.488965E3,6.3961847E2,7.468385E3,1.1227284E3],"tree_param":{"num_deleted":"0","num_feature":"46","num_nodes":"7","size_leaf_vector":"1"}},{"base_weights":[-1.1321023E-4,-3.5835788E-2,9.953757E-2,1.23230545E-2,-5.4685464E-3,1.4585401E-2,-6.698087E-3],"categories":[],"categories_nodes":[],"categories_segments":[],"categories_sizes":[],"default_left":[0,0,0,0,0,0,0],"id":88,"left_children":[1,3,5,-1,-1,-1,-1],"loss_changes":[4.5241882E1,3.478284E1,3.563745E1,0E0,0E0,0E0,0E0],"parents":[2147483647,0,0,1,1,2,2],"right_children":[2,4,6,-1,-1,-1,-1],"split_conditions":[4.992578E2,2E0,6E0,1.23230545E-2,-5.4685464E-3,1.4585401E-2,-6.698087E-3],"split_indices":[33,45,38,0,0,0,0],"split_type":[0,0,0,0,0,0,0],"sum_hessian":[1.0707141E4,8.35312E3,2.3540208E3,2.983022E2,8.0548184E3,1.9388376E3,4.1518307E2],"tree_param":{"num_deleted":"0","num_feature":"46","num_nodes":"7","size_leaf_vector":"1"}},{"base_weights":[-2.554866E-4,8.038685E-2,-4.1650385E-2,-4.3034325E-3,1.8370142E-2,1.0261248E-2,-8.252087E-3],"categories":[],"categories_nodes":[],"categories_segments":[],"categories_sizes":[],"default_left":[0,0,0,0,0,0,0],"id":89,"left_children":[1,3,5,-1,-1,-1,-1],"loss_changes":[4.2566425E1,6.307147E1,5.8124912E1,0E0,0E0,0E0,0E0],"parents":[2147483647,0,0,1,1,2,2],"right_children":[2,4,6,-1,-1,-1,-1],"split_conditions":[2.1910679E-2,1.3E1,8E0,-4.3034325E-3,1.8370142E-2,1.0261248E-2,-8.252087E-3],"split_indices":[27,31,31,0,0,0,0],"split_type":[0,0,0,0,0,0,0],"sum_hessian":[1.0748398E4,3.3263367E3,7.4220615E3,1.7815422E3,1.5447944E3,1.3050118E3,6.11705E3],"tree_param":{"num_deleted":"0","num_feature":"46","num_nodes":"7","size_leaf_vector":"1"}},{"base_weights":[-2.2387095E-3,5.4240957E-2,-6.4467154E-2,7.531248E-3,-8.295382E-3,7.3604197E-3,-8.759277E-3],"categories":[],"categories_nodes":[],"categories_segments":[],"categories_sizes":[],"default_left":[0,0,0,0,0,0,0],"id":90,"left_children":[1,3,5,-1,-1,-1,-1],"loss_changes":[4.472419E1,2.5593971E1,2.5726398E1,0E0,0E0,0E0,0E0],"parents":[2147483647,0,0,1,1,2,2],"right_children":[2,4,6,-1,-1,-1,-1],"split_conditions":[4E0,2.1696587E0,7E0,7.531248E-3,-8.295382E-3,7.3604197E-3,-8.759277E-3],"split_indices":[13,17,31,0,0,0,0],"split_type":[0,0,0,0,0,0,0],"sum_hessian":[1.0730193E4,5.6922036E3,5.0379897E3,5.3253467E3,3.668571E2,4.0961057E2,4.628379E3],"tree_param":{"num_deleted":"0","num_feature":"46","num_nodes":"7","size_leaf_vector":"1"}},{"base_weights":[9.778576E-4,-3.01402E-2,1.0810451E-1,-5.6713596E-3,7.768964E-3,1.1640459E-2,-1.5669473E-3],"categories":[],"categories_nodes":[],"categories_segments":[],"categories_sizes":[],"default_left":[0,0,0,0,0,0,0],"id":91,"left_children":[1,3,5,-1,-1,-1,-1],"loss_changes":[4.2207676E1,3.2590065E1,4.7498627E0,0E0,0E0,0E0,0E0],"parents":[2147483647,0,0,1,1,2,2],"right_children":[2,4,6,-1,-1,-1,-1],"split_conditions":[3.2740093E1,8.153425E1,2.3172607E0,-5.6713596E-3,7.768964E-3,1.1640459E-2,-1.5669473E-3],"split_indices":[40,6,17,0,0,0,0],"split_type":[0,0,0,0,0,0,0],"sum_hessian":[1.0683974E4,8.83596E3,1.8480132E3,7.4692876E3,1.3666725E3,1.7876737E3,6.0339386E1],"tree_param":{"num_deleted":"0","num_feature":"46","num_nodes":"7","size_leaf_vector":"1"}},{"base_weights":[1.8493758E-3,2.726556E-2,-1.1321775E-1,-4.5804763E-3,1.2407456E-2,-1.3268481E-2,1.8147965E-3],"categories":[],"categories_nodes":[],"categories_segments":[],"categories_sizes":[],"default_left":[0,0,0,0,0,0,0],"id":92,"left_children":[1,3,5,-1,-1,-1,-1],"loss_changes":[3.7254303E1,7.9075485E1,8.309568E0,0E0,0E0,0E0,0E0],"parents":[2147483647,0,0,1,1,2,2],"right_children":[2,4,6,-1,-1,-1,-1],"split_conditions":[1.76875E1,1.0271834E2,4.1E1,-4.5804763E-3,1.2407456E-2,-1.3268481E-2,1.8147965E-3],"split_indices":[1,0,11,0,0,0,0],"split_type":[0,0,0,0,0,0,0],"sum_hessian":[1.0682877E4,9.375132E3,1.3077455E3,5.6428374E3,3.7322944E3,1.1302172E3,1.7752823E2],"tree_param":{"num_deleted":"0","num_feature":"46","num_nodes":"7","size_leaf_vector":"1"}},{"base_weights":[-3.712248E-3,-1.1131903E-1,2.3979083E-2,2.3573986E-3,-1.3113119E-2,6.8790377E-3,-7.231537E-3],"categories":[],"categories_nodes":[],"categories_segments":[],"categories_sizes":[],"default_left":[0,0,0,0,0,0,0],"id":93,"left_children":[1,3,5,-1,-1,-1,-1],"loss_changes":[3.7427063E1,9.945242E0,4.8556664E1,0E0,0E0,0E0,0E0],"parents":[2147483647,0,0,1,1,2,2],"right_children":[2,4,6,-1,-1,-1,-1],"split_conditions":[2.560474E2,6E0,6E0,2.3573986E-3,-1.3113119E-2,6.8790377E-3,-7.231537E-3],"split_indices":[29,31,37,0,0,0,0],"split_type":[0,0,0,0,0,0,0],"sum_hessian":[1.0664551E4,1.5646035E3,9.099947E3,1.7605319E2,1.3885503E3,6.404973E3,2.694974E3],"tree_param":{"num_deleted":"0","num_feature":"46","num_nodes":"7","size_leaf_vector":"1"}},{"base_weights":[1.4290398E-4,1.5969123E-1,-1.964704E-2,1.6391518E-2,-4.2122856E-4,-5.5729738E-3,6.2969797E-3],"categories":[],"categories_nodes":[],"categories_segments":[],"categories_sizes":[],"default_left":[0,0,0,0,0,0,0],"id":94,"left_children":[1,3,5,-1,-1,-1,-1],"loss_changes":[4.0094646E1,1.6605186E0,3.72057E1,0E0,0E0,0E0,0E0],"parents":[2147483647,0,0,1,1,2,2],"right_children":[2,4,6,-1,-1,-1,-1],"split_conditions":[2E0,2.6046875E1,4.04E1,1.6391518E-2,-4.2122856E-4,-5.5729738E-3,6.2969797E-3],"split_indices":[45,1,14,0,0,0,0],"split_type":[0,0,0,0,0,0,0],"sum_hessian":[1.0704751E4,4.0117E2,1.0303581E4,3.9102188E2,1.01481285E1,7.3979766E3,2.9056045E3],"tree_param":{"num_deleted":"0","num_feature":"46","num_nodes":"7","size_leaf_vector":"1"}},{"base_weights":[-3.6583722E-3,6.430791E-2,-4.8143007E-2,-6.686557E-3,9.2014E-3,-7.112402E-3,6.7943367E-3],"categories":[],"categories_nodes":[],"categories_segments":[],"categories_sizes":[],"default_left":[0,0,0,0,0,0,0],"id":95,"left_children":[1,3,5,-1,-1,-1,-1],"loss_changes":[3.8544636E1,2.4564896E1,2.5263062E1,0E0,0E0,0E0,0E0],"parents":[2147483647,0,0,1,1,2,2],"right_children":[2,4,6,-1,-1,-1,-1],"split_conditions":[9.5559806E-1,2.9747656E2,4.85E1,-6.686557E-3,9.2014E-3,-7.112402E-3,6.7943367E-3],"split_indices":[41,33,11,0,0,0,0],"split_type":[0,0,0,0,0,0,0],"sum_hessian":[1.0724553E4,4.0662588E3,6.658294E3,4.626187E2,3.6036401E3,5.8813184E3,7.769756E2],"tree_param":{"num_deleted":"0","num_feature":"46","num_nodes":"7","size_leaf_vector":"1"}},{"base_weights":[2.930784E-3,4.4716667E-2,-6.5228865E-2,-1.0467166E-2,8.195679E-3,3.0018983E-4,-1.631512E-2],"categories":[],"categories_nodes":[],"categories_segments":[],"categories_sizes":[],"default_left":[0,0,0,0,0,0,0],"id":96,"left_children":[1,3,5,-1,-1,-1,-1],"loss_changes":[3.625231E1,5.2246216E1,3.29282E1,0E0,0E0,0E0,0E0],"parents":[2147483647,0,0,1,1,2,2],"right_children":[2,4,6,-1,-1,-1,-1],"split_conditions":[4E0,4.7140273E-1,1.55E1,-1.0467166E-2,8.195679E-3,3.0018983E-4,-1.631512E-2],"split_indices":[32,19,1,0,0,0,0],"split_type":[0,0,0,0,0,0,0],"sum_hessian":[1.0704423E4,6.8493247E3,3.8550981E3,1.00541E3,5.843915E3,2.8432852E3,1.0118129E3],"tree_param":{"num_deleted":"0","num_feature":"46","num_nodes":"7","size_leaf_vector":"1"}},{"base_weights":[-3.4565127E-3,4.8756845E-2,-6.059121E-2,-1.8549747E-3,1.1143869E-2,7.9473695E-3,-8.462719E-3],"categories":[],"categories_nodes":[],"categories_segments":[],"categories_sizes":[],"default_left":[0,0,0,0,0,0,0],"id":97,"left_children":[1,3,5,-1,-1,-1,-1],"loss_changes":[3.7893486E1,3.022277E1,2.7054295E1,0E0,0E0,0E0,0E0],"parents":[2147483647,0,0,1,1,2,2],"right_children":[2,4,6,-1,-1,-1,-1],"split_conditions":[4E0,1.7E1,7E0,-1.8549747E-3,1.1143869E-2,7.9473695E-3,-8.462719E-3],"split_indices":[13,11,31,0,0,0,0],"split_type":[0,0,0,0,0,0,0],"sum_hessian":[1.0712026E4,5.6736836E3,5.0383433E3,3.07542E3,2.5982634E3,4.001426E2,4.6382007E3],"tree_param":{"num_deleted":"0","num_feature":"46","num_nodes":"7","size_leaf_vector":"1"}},{"base_weights":[8.8545885E-3,3.3633504E-2,-1.0488485E-1,-3.7381526E-3,9.991956E-3,-1.3843064E-2,3.1546068E-3],"categories":[],"categories_nodes":[],"categories_segments":[],"categories_sizes":[],"default_left":[0,0,0,0,0,0,0],"id":98,"left_children":[1,3,5,-1,-1,-1,-1],"loss_changes":[3.643273E1,5.2427444E1,1.5036831E1,0E0,0E0,0E0,0E0],"parents":[2147483647,0,0,1,1,2,2],"right_children":[2,4,6,-1,-1,-1,-1],"split_conditions":[1.76875E1,9.305467E1,6.15E1,-3.7381526E-3,9.991956E-3,-1.3843064E-2,3.1546068E-3],"split_indices":[1,0,3,0,0,0,0],"split_type":[0,0,0,0,0,0,0],"sum_hessian":[1.0675343E4,9.343985E3,1.3313578E3,4.7215977E3,4.6223877E3,1.0568425E3,2.745152E2],"tree_param":{"num_deleted":"0","num_feature":"46","num_nodes":"7","size_leaf_vector":"1"}},{"base_weights":[4.824211E-3,3.0142669E-2,-1.0189138E-1,-5.014207E-3,6.5369527E-3,2.1048335E-3,-1.1759613E-2],"categories":[],"categories_nodes":[],"categories_segments":[],"categories_sizes":[],"default_left":[0,0,0,0,0,0,0],"id":99,"left_children":[1,3,5,-1,-1,-1,-1],"loss_changes":[3.4589874E1,3.212583E1,7.234913E0,0E0,0E0,0E0,0E0],"parents":[2147483647,0,0,1,1,2,2],"right_children":[2,4,6,-1,-1,-1,-1],"split_conditions":[1.8876247E0,3.5109375E2,5.078125E-1,-5.014207E-3,6.5369527E-3,2.1048335E-3,-1.1759613E-2],"split_indices":[41,33,12,0,0,0,0],"split_type":[0,0,0,0,0,0,0],"sum_hessian":[1.0665456E4,9.200229E3,1.4652279E3,2.6766133E3,6.5236147E3,1.2742976E2,1.3377982E3],"tree_param":{"num_deleted":"0","num_feature":"46","num_nodes":"7","size_leaf_vector":"1"}},{"base_weights":[-6.7065773E-3,7.15427E-2,-4.0107545E-2,-3.0871504E-3,1.10579925E-2,7.017731E-4,-1.0630132E-2],"categories":[],"categories_nodes":[],"categories_segments":[],"categories_sizes":[],"default_left":[0,0,0,0,0,0,0],"id":100,"left_children":[1,3,5,-1,-1,-1,-1],"loss_changes":[3.3441833E1,1.8840307E1,2.8317863E1,0E0,0E0,0E0,0E0],"parents":[2147483647,0,0,1,1,2,2],"right_children":[2,4,6,-1,-1,-1,-1],"split_conditions":[7.6790017E-1,8.184677E1,1.30234375E1,-3.0871504E-3,1.10579925E-2,7.017731E-4,-1.0630132E-2],"split_indices":[41,0,1,0,0,0,0],"split_type":[0,0,0,0,0,0,0],"sum_hessian":[1.0697434E4,2.8585957E3,7.838838E3,8.466324E2,2.0119633E3,5.101157E3,2.7376807E3],"tree_param":{"num_deleted":"0","num_feature":"46","num_nodes":"7","size_leaf_vector":"1"}},{"base_weights":[-3.6528113E-4,-2.7330823E-2,1.1516246E-1,8.579232E-3,-5.803318E-3,1.8082947E-2,-4.4875666E-3],"categories":[],"categories_nodes":[],"categories_segments":[],"categories_sizes":[],"default_left":[0,0,0,0,0,0,0],"id":101,"left_children":[1,3,5,-1,-1,-1,-1],"loss_changes":[3.9551502E1,4.0691322E1,3.337072E1,0E0,0E0,0E0,0E0],"parents":[2147483647,0,0,1,1,2,2],"right_children":[2,4,6,-1,-1,-1,-1],"split_conditions":[1.6E1,8E0,5.79435E-2,8.579232E-3,-5.803318E-3,1.8082947E-2,-4.4875666E-3],"split_indices":[31,31,25,0,0,0,0],"split_type":[0,0,0,0,0,0,0],"sum_hessian":[1.0685677E4,9.282466E3,1.403211E3,1.5984904E3,7.6839756E3,9.028414E2,5.0036966E2],"tree_param":{"num_deleted":"0","num_feature":"46","num_nodes":"7","size_leaf_vector":"1"}},{"base_weights":[2.7943337E-3,2.0851629E-2,-1.3635047E-1,5.3551453E-3,-6.077439E-3,-1.4001048E-2,4.1599284E-4],"categories":[],"categories_nodes":[],"categories_segments":[],"categories_sizes":[],"default_left":[0,0,0,0,0,0,0],"id":102,"left_children":[1,3,5,-1,-1,-1,-1],"loss_changes":[3.2179497E1,3.3154438E1,1.3403645E0,0E0,0E0,0E0,0E0],"parents":[2147483647,0,0,1,1,2,2],"right_children":[2,4,6,-1,-1,-1,-1],"split_conditions":[2.3444824E0,6E0,5.036368E2,5.3551453E-3,-6.077439E-3,-1.4001048E-2,4.1599284E-4],"split_indices":[17,37,29,0,0,0,0],"split_type":[0,0,0,0,0,0,0],"sum_hessian":[1.06758E4,1.0201997E4,4.7380347E2,7.5295566E3,2.6724402E3,4.6524268E2,8.560786E0],"tree_param":{"num_deleted":"0","num_feature":"46","num_nodes":"7","size_leaf_vector":"1"}},{"base_weights":[5.051054E-3,7.772927E-2,-3.3068486E-2,-1.987976E-3,1.8011605E-2,7.307353E-3,-7.917247E-3],"categories":[],"categories_nodes":[],"categories_segments":[],"categories_sizes":[],"default_left":[0,0,0,0,0,0,0],"id":103,"left_children":[1,3,5,-1,-1,-1,-1],"loss_changes":[3.4891396E1,4.667627E1,4.6666756E1,0E0,0E0,0E0,0E0],"parents":[2147483647,0,0,1,1,2,2],"right_children":[2,4,6,-1,-1,-1,-1],"split_conditions":[2.1910679E-2,1.4E1,9E0,-1.987976E-3,1.8011605E-2,7.307353E-3,-7.917247E-3],"split_indices":[27,31,31,0,0,0,0],"split_type":[0,0,0,0,0,0,0],"sum_hessian":[1.0666298E4,3.3122026E3,7.354095E3,2.108208E3,1.2039948E3,2.0498633E3,5.3042314E3],"tree_param":{"num_deleted":"0","num_feature":"46","num_nodes":"7","size_leaf_vector":"1"}},{"base_weights":[-1.0274756E-3,1.4618097E-1,-1.9122044E-2,1.50160985E-2,-3.202184E-4,-3.7277935E-3,1.1255856E-2],"categories":[],"categories_nodes":[],"categories_segments":[],"categories_sizes":[],"default_left":[0,0,0,0,0,0,0],"id":104,"left_children":[1,3,5,-1,-1,-1,-1],"loss_changes":[3.3927116E1,1.310255E0,3.1193869E1,0E0,0E0,0E0,0E0],"parents":[2147483647,0,0,1,1,2,2],"right_children":[2,4,6,-1,-1,-1,-1],"split_conditions":[2E0,2.509375E1,1.8E1,1.50160985E-2,-3.202184E-4,-3.7277935E-3,1.1255856E-2],"split_indices":[45,1,31,0,0,0,0],"split_type":[0,0,0,0,0,0,0],"sum_hessian":[1.0687558E4,3.9503415E2,1.0292523E4,3.7971072E2,1.5323422E1,9.675402E3,6.17121E2],"tree_param":{"num_deleted":"0","num_feature":"46","num_nodes":"7","size_leaf_vector":"1"}},{"base_weights":[1.6179851E-3,5.045436E-2,-5.2850906E-2,-7.618484E-3,7.364345E-3,3.9005969E-3,-7.891154E-3],"categories":[],"categories_nodes":[],"categories_segments":[],"categories_sizes":[],"default_left":[0,0,0,0,0,0,0],"id":105,"left_children":[1,3,5,-1,-1,-1,-1],"loss_changes":[3.372158E1,2.5189545E1,1.7458838E1,0E0,0E0,0E0,0E0],"parents":[2147483647,0,0,1,1,2,2],"right_children":[2,4,6,-1,-1,-1,-1],"split_conditions":[4E0,2.860625E2,1.9342529E-3,-7.618484E-3,7.364345E-3,3.9005969E-3,-7.891154E-3],"split_indices":[13,33,28,0,0,0,0],"split_type":[0,0,0,0,0,0,0],"sum_hessian":[1.0674543E4,5.6671367E3,5.0074062E3,5.233991E2,5.143738E3,9.968904E2,4.010516E3],"tree_param":{"num_deleted":"0","num_feature":"46","num_nodes":"7","size_leaf_vector":"1"}},{"base_weights":[8.905574E-3,2.65325E-2,-1.2315222E-1,5.8051785E-3,-5.3680055E-3,-1.2817427E-2,3.7840073E-4],"categories":[],"categories_nodes":[],"categories_segments":[],"categories_sizes":[],"default_left":[0,0,0,0,0,0,0],"id":106,"left_children":[1,3,5,-1,-1,-1,-1],"loss_changes":[3.0409178E1,3.1203949E1,1.4733181E0,0E0,0E0,0E0,0E0],"parents":[2147483647,0,0,1,1,2,2],"right_children":[2,4,6,-1,-1,-1,-1],"split_conditions":[2.267334E0,6E0,1.20289154E2,5.8051785E-3,-5.3680055E-3,-1.2817427E-2,3.7840073E-4],"split_indices":[17,37,6,0,0,0,0],"split_type":[0,0,0,0,0,0,0],"sum_hessian":[1.0659918E4,1.0109586E4,5.50332E2,7.456035E3,2.653551E3,5.200055E2,3.0326485E1],"tree_param":{"num_deleted":"0","num_feature":"46","num_nodes":"7","size_leaf_vector":"1"}},{"base_weights":[6.154306E-3,-5.8514692E-2,4.632829E-2,-8.81546E-3,2.3524123E-3,7.087818E-3,-6.9929645E-3],"categories":[],"categories_nodes":[],"categories_segments":[],"categories_sizes":[],"default_left":[0,0,0,0,0,0,0],"id":107,"left_children":[1,3,5,-1,-1,-1,-1],"loss_changes":[3.303359E1,1.4023235E1,2.7096764E1,0E0,0E0,0E0,0E0],"parents":[2147483647,0,0,1,1,2,2],"right_children":[2,4,6,-1,-1,-1,-1],"split_conditions":[1.1493191E2,5.6177776E1,1.7834473E0,-8.81546E-3,2.3524123E-3,7.087818E-3,-6.9929645E-3],"split_indices":[16,6,17,0,0,0,0],"split_type":[0,0,0,0,0,0,0],"sum_hessian":[1.0671505E4,3.9141975E3,6.7573066E3,2.8205942E3,1.0936035E3,5.9014497E3,8.5585706E2],"tree_param":{"num_deleted":"0","num_feature":"46","num_nodes":"7","size_leaf_vector":"1"}},{"base_weights":[-4.2651338E-4,2.8447647E-2,-9.458572E-2,-2.6902233E-3,1.08852275E-2,-1.2826863E-2,4.214896E-3],"categories":[],"categories_nodes":[],"categories_segments":[],"categories_sizes":[],"default_left":[0,0,0,0,0,0,0],"id":108,"left_children":[1,3,5,-1,-1,-1,-1],"loss_changes":[3.4285828E1,4.5930576E1,1.9032238E1,0E0,0E0,0E0,0E0],"parents":[2147483647,0,0,1,1,2,2],"right_children":[2,4,6,-1,-1,-1,-1],"split_conditions":[1.6046875E1,1.0271834E2,1.6E1,-2.6902233E-3,1.08852275E-2,-1.2826863E-2,4.214896E-3],"split_indices":[1,0,31,0,0,0,0],"split_type":[0,0,0,0,0,0,0],"sum_hessian":[1.0621104E4,8.662579E3,1.9585248E3,5.5247803E3,3.1377988E3,1.621102E3,3.374228E2],"tree_param":{"num_deleted":"0","num_feature":"46","num_nodes":"7","size_leaf_vector":"1"}},{"base_weights":[2.636401E-4,-4.8943304E-2,6.611778E-2,9.974814E-3,-6.7968727E-3,1.1096685E-2,-1.4113846E-3],"categories":[],"categories_nodes":[],"categories_segments":[],"categories_sizes":[],"default_left":[0,0,0,0,0,0,0],"id":109,"left_children":[1,3,5,-1,-1,-1,-1],"loss_changes":[4.0787067E1,2.7167704E1,2.0929167E1,0E0,0E0,0E0,0E0],"parents":[2147483647,0,0,1,1,2,2],"right_children":[2,4,6,-1,-1,-1,-1],"split_conditions":[2.425E1,2E0,2.4375E0,9.974814E-3,-6.7968727E-3,1.1096685E-2,-1.4113846E-3],"split_indices":[11,45,12,0,0,0,0],"split_type":[0,0,0,0,0,0,0],"sum_hessian":[1.0588108E4,6.206978E3,4.3811304E3,2.2280219E2,5.984176E3,2.5645042E3,1.816626E3],"tree_param":{"num_deleted":"0","num_feature":"46","num_nodes":"7","size_leaf_vector":"1"}},{"base_weights":[-4.3840753E-3,-3.6492847E-2,7.155433E-2,1.9309781E-3,-8.675526E-3,-2.9891324E-3,9.609611E-3],"categories":[],"categories_nodes":[],"categories_segments":[],"categories_sizes":[],"default_left":[0,0,0,0,0,0,0],"id":110,"left_children":[1,3,5,-1,-1,-1,-1],"loss_changes":[3.0998642E1,2.6482908E1,1.2327034E1,0E0,0E0,0E0,0E0],"parents":[2147483647,0,0,1,1,2,2],"right_children":[2,4,6,-1,-1,-1,-1],"split_conditions":[1.3675221E2,3.785825E-2,5.105604E-1,1.9309781E-3,-8.675526E-3,-2.9891324E-3,9.609611E-3],